{"learner":{"attributes":{"scikit_learn":"{\"_estimator_type\": \"regressor\"}"},"feature_names":["temperature_2m_lag1","relative_humidity_2m_lag1","surface_pressure_lag1","cloud_cover_lag1","dew_point_lag1","soil_moisture_lag1","precipitation_lag1","temperature_2m_lag24","relative_humidity_2m_lag24","surface_pressure_lag24","cloud_cover_lag24","dew_point_lag24","soil_moisture_lag24","precipitation_lag24"],"feature_types":["float","float","float","float","float","float","float","float","float","float","float","float","float","float"],"gradient_booster":{"model":{"cats":{"enc":[],"feature_segments":[],"sorted_idx":[]},"gbtree_model_param":{"num_parallel_tree":"1","num_trees":"100"},"iteration_indptr":[0,1,2,3,4,5,6,7,8,9,10,11,12,13,14,15,16,17,18,19,20,21,22,23,24,25,26,27,28,29,30,31,32,33,34,35,36,37,38,39,40,41,42,43,44,45,46,47,48,49,50,51,52,53,54,55,56,57,58,59,60,61,62,63,64,65,66,67,68,69,70,71,72,73,74,75,76,77,78,79,80,81,82,83,84,85,86,87,88,89,90,91,92,93,94,95,96,97,98,99,100],"tree_info":[0,0,0,0,0,0,0,0,0,0,0,0,0,0,0,0,0,0,0,0,0,0,0,0,0,0,0,0,0,0,0,0,0,0,0,0,0,0,0,0,0,0,0,0,0,0,0,0,0,0,0,0,0,0,0,0,0,0,0,0,0,0,0,0,0,0,0,0,0,0,0,0,0,0,0,0,0,0,0,0,0,0,0,0,0,0,0,0,0,0,0,0,0,0,0,0,0,0,0,0],"trees":[{"base_weights":[-7.3619606E-7,-3.1053534E0,3.985949E0,-4.94783E0,-1.6474345E0,2.5517087E0,6.6355095E0,-6.373044E0,-4.109285E0,-2.4593067E0,-5.995886E-1,1.5904939E0,3.72148E0,5.4819818E0,7.922023E0,-7.0483923E0,-5.6419954E0,-4.6656427E0,-3.4850862E0,-2.809523E0,-1.5036333E0,-1.0078099E0,6.846726E-1,1.1261929E0,2.438119E0,2.0525644E0,4.1274343E0,4.72236E0,6.066405E0,7.2468066E0,8.98278E0,-7.5586414E0,-6.621514E0,-5.9357204E0,-5.068254E0,-4.9966335E0,-4.287395E0,-3.6914876E0,-2.799925E0,-3.0269334E0,-2.4274738E0,-1.6874458E0,-1.0934788E-2,-1.336046E0,-6.398526E-1,3.4243926E-1,2.144349E0,6.8004656E-1,1.7828726E0,2.0580478E0,2.8990455E0,-1.09624006E-1,2.5605326E0,3.593636E0,4.5960245E0,4.375143E0,5.542436E0,5.8138905E0,6.8892016E0,6.6399035E0,7.6329727E0,8.624047E0,9.921903E0,-2.435208E0,-2.1336672E0,-2.026914E0,-1.8144933E0,-1.8385388E0,-1.7079518E0,-1.5657347E0,-1.3178719E0,-1.5848067E0,-1.386285E0,-1.3331263E0,-1.1925259E0,-1.1790094E0,-1.05156E0,-8.6240625E-1,1.4275527E-1,-9.79485E-1,-7.946006E-1,-7.8180766E-1,-6.7163944E-1,-5.7883155E-1,-3.912251E-1,-1.0003141E-1,6.588195E-1,-4.7574183E-1,-2.3668508E-1,-1.5278631E-1,-4.2591777E-1,6.545339E-2,4.0954447E-1,4.9242905E-1,1.0084996E0,2.4359933E-1,-2.071854E-1,-1.1262331E-1,5.8482176E-1,5.2563417E-1,7.2319293E-1,8.252993E-1,1.1142609E0,-3.3667266E-1,1.8958424E-1,4.262399E-1,8.7260705E-1,9.334308E-1,1.1392107E0,1.1196334E0,1.4557539E0,1.2069839E0,1.4086903E0,1.598725E0,1.9161061E0,1.6459026E0,1.829276E0,1.9716552E0,2.221339E0,1.7814597E0,2.0832045E0,2.154604E0,2.3889053E0,2.472458E0,2.7086604E0,2.8498943E0,3.1276364E0],"categories":[],"categories_nodes":[],"categories_segments":[],"categories_sizes":[],"default_left":[0,0,0,0,0,0,0,0,0,0,0,0,0,0,0,0,0,0,0,0,0,0,0,0,0,0,0,0,0,0,0,0,0,0,0,0,0,0,0,0,0,0,0,0,0,0,0,0,0,0,0,0,0,0,0,0,0,0,0,0,0,0,0,0,0,0,0,0,0,0,0,0,0,0,0,0,0,0,0,0,0,0,0,0,0,0,0,0,0,0,0,0,0,0,0,0,0,0,0,0,0,0,0,0,0,0,0,0,0,0,0,0,0,0,0,0,0,0,0,0,0,0,0,0,0,0,0],"id":0,"left_children":[1,3,5,7,9,11,13,15,17,19,21,23,25,27,29,31,33,35,37,39,41,43,45,47,49,51,53,55,57,59,61,63,65,67,69,71,73,75,77,79,81,83,85,87,89,91,93,95,97,99,101,103,105,107,109,111,113,115,117,119,121,123,125,-1,-1,-1,-1,-1,-1,-1,-1,-1,-1,-1,-1,-1,-1,-1,-1,-1,-1,-1,-1,-1,-1,-1,-1,-1,-1,-1,-1,-1,-1,-1,-1,-1,-1,-1,-1,-1,-1,-1,-1,-1,-1,-1,-1,-1,-1,-1,-1,-1,-1,-1,-1,-1,-1,-1,-1,-1,-1,-1,-1,-1,-1,-1,-1],"loss_changes":[1.3017711E6,1.5878544E5,1.74997E5,3.1181562E4,2.8074727E4,3.3593453E4,2.395925E4,4.7349375E3,5.6940312E3,6.2193906E3,7.554793E3,6.4534883E3,9.122906E3,3.7585938E3,5.4097812E3,1.0440312E3,7.53375E2,1.0666562E3,1.0860781E3,1.122875E3,1.3688467E3,1.3197188E3,1.7357013E3,3.1046191E3,1.0109844E3,2.898755E3,2.6949219E3,1.0332891E3,9.6096875E2,1.0452188E3,9.146719E2,5.1120312E2,1.711875E2,1.0858594E2,1.3815625E2,4.7304688E2,1.8074219E2,2.5085156E2,4.4195215E2,7.717578E2,1.6058594E2,4.0957227E2,3.9077927E2,7.882705E2,5.2438354E2,3.576954E2,3.985415E2,1.1425161E3,1.5419492E3,3.393457E2,3.0608984E2,3.7842636E2,8.438428E2,4.8646094E2,1.2602031E3,2.7588672E2,1.6435938E2,3.0971875E2,1.3526562E2,3.4842188E2,3.6714062E2,2.5945312E2,7.403906E1,0E0,0E0,0E0,0E0,0E0,0E0,0E0,0E0,0E0,0E0,0E0,0E0,0E0,0E0,0E0,0E0,0E0,0E0,0E0,0E0,0E0,0E0,0E0,0E0,0E0,0E0,0E0,0E0,0E0,0E0,0E0,0E0,0E0,0E0,0E0,0E0,0E0,0E0,0E0,0E0,0E0,0E0,0E0,0E0,0E0,0E0,0E0,0E0,0E0,0E0,0E0,0E0,0E0,0E0,0E0,0E0,0E0,0E0,0E0,0E0,0E0,0E0,0E0,0E0],"parents":[2147483647,0,0,1,1,2,2,3,3,4,4,5,5,6,6,7,7,8,8,9,9,10,10,11,11,12,12,13,13,14,14,15,15,16,16,17,17,18,18,19,19,20,20,21,21,22,22,23,23,24,24,25,25,26,26,27,27,28,28,29,29,30,30,31,31,32,32,33,33,34,34,35,35,36,36,37,37,38,38,39,39,40,40,41,41,42,42,43,43,44,44,45,45,46,46,47,47,48,48,49,49,50,50,51,51,52,52,53,53,54,54,55,55,56,56,57,57,58,58,59,59,60,60,61,61,62,62],"right_children":[2,4,6,8,10,12,14,16,18,20,22,24,26,28,30,32,34,36,38,40,42,44,46,48,50,52,54,56,58,60,62,64,66,68,70,72,74,76,78,80,82,84,86,88,90,92,94,96,98,100,102,104,106,108,110,112,114,116,118,120,122,124,126,-1,-1,-1,-1,-1,-1,-1,-1,-1,-1,-1,-1,-1,-1,-1,-1,-1,-1,-1,-1,-1,-1,-1,-1,-1,-1,-1,-1,-1,-1,-1,-1,-1,-1,-1,-1,-1,-1,-1,-1,-1,-1,-1,-1,-1,-1,-1,-1,-1,-1,-1,-1,-1,-1,-1,-1,-1,-1,-1,-1,-1,-1,-1,-1],"split_conditions":[2.275E1,1.91E1,2.735E1,1.71E1,2.0825E1,2.54E1,2.905E1,1.64E1,1.865E1,2.0875E1,2.325E1,2.48E1,2.43E1,2.7225E1,3.065E1,1.545E1,1.7325E1,1.8E1,1.975E1,1.995E1,2.275E1,2.1625E1,2.5075E1,2.41E1,2.5925001E1,2.255E1,2.675E1,2.865E1,2.965E1,2.905E1,3.2075E1,1.51E1,1.66E1,1.69E1,1.815E1,1.785E1,1.8625E1,1.59E1,2.23E1,1.9825E1,8.9224506E2,2.1625E1,2.47E1,2.195E1,8.615338E1,1E-1,1E-1,8.2470116E1,2.145E1,2.425E1,1E-1,2.145E1,8.924897E2,8.9229297E2,8.9197217E2,2.61E1,1E-1,8.9285516E2,3.05E1,8.9208203E2,8.923822E2,3.1E1,3.2075E1,-2.435208E0,-2.1336672E0,-2.026914E0,-1.8144933E0,-1.8385388E0,-1.7079518E0,-1.5657347E0,-1.3178719E0,-1.5848067E0,-1.386285E0,-1.3331263E0,-1.1925259E0,-1.1790094E0,-1.05156E0,-8.6240625E-1,1.4275527E-1,-9.79485E-1,-7.946006E-1,-7.8180766E-1,-6.7163944E-1,-5.7883155E-1,-3.912251E-1,-1.0003141E-1,6.588195E-1,-4.7574183E-1,-2.3668508E-1,-1.5278631E-1,-4.2591777E-1,6.545339E-2,4.0954447E-1,4.9242905E-1,1.0084996E0,2.4359933E-1,-2.071854E-1,-1.1262331E-1,5.8482176E-1,5.2563417E-1,7.2319293E-1,8.252993E-1,1.1142609E0,-3.3667266E-1,1.8958424E-1,4.262399E-1,8.7260705E-1,9.334308E-1,1.1392107E0,1.1196334E0,1.4557539E0,1.2069839E0,1.4086903E0,1.598725E0,1.9161061E0,1.6459026E0,1.829276E0,1.9716552E0,2.221339E0,1.7814597E0,2.0832045E0,2.154604E0,2.3889053E0,2.472458E0,2.7086604E0,2.8498943E0,3.1276364E0],"split_indices":[7,7,0,7,7,7,7,0,0,0,0,0,0,7,0,7,0,7,0,7,0,7,0,7,0,0,7,0,0,0,0,0,7,0,0,0,7,4,0,0,9,0,0,0,1,13,13,1,0,7,13,0,9,2,9,7,13,2,0,9,2,7,7,0,0,0,0,0,0,0,0,0,0,0,0,0,0,0,0,0,0,0,0,0,0,0,0,0,0,0,0,0,0,0,0,0,0,0,0,0,0,0,0,0,0,0,0,0,0,0,0,0,0,0,0,0,0,0,0,0,0,0,0,0,0,0,0],"split_type":[0,0,0,0,0,0,0,0,0,0,0,0,0,0,0,0,0,0,0,0,0,0,0,0,0,0,0,0,0,0,0,0,0,0,0,0,0,0,0,0,0,0,0,0,0,0,0,0,0,0,0,0,0,0,0,0,0,0,0,0,0,0,0,0,0,0,0,0,0,0,0,0,0,0,0,0,0,0,0,0,0,0,0,0,0,0,0,0,0,0,0,0,0,0,0,0,0,0,0,0,0,0,0,0,0,0,0,0,0,0,0,0,0,0,0,0,0,0,0,0,0,0,0,0,0,0,0],"sum_hessian":[1.05168E5,5.9114E4,4.6054E4,2.6112E4,3.3002E4,2.9881E4,1.6173E4,9.67E3,1.6442E4,1.8594E4,1.4408E4,1.6404E4,1.3477E4,8.53E3,7.643E3,5.022E3,4.648E3,8.69E3,7.752E3,1.3606E4,4.988E3,1.0933E4,3.475E3,1.06E4,5.804E3,2.638E3,1.0839E4,3.713E3,4.817E3,4.675E3,2.968E3,2.28E3,2.742E3,3.068E3,1.58E3,4.628E3,4.062E3,5.954E3,1.798E3,8.667E3,4.939E3,4.441E3,5.47E2,5.777E3,5.156E3,2.816E3,6.59E2,6.313E3,4.287E3,3.184E3,2.62E3,5.02E2,2.136E3,5.071E3,5.768E3,2.613E3,1.1E3,3.692E3,1.125E3,1.825E3,2.85E3,2.155E3,8.13E2,1.005E3,1.275E3,2.211E3,5.31E2,1.696E3,1.372E3,1.286E3,2.94E2,2.62E3,2.008E3,2.698E3,1.364E3,2.602E3,3.352E3,1.758E3,4E1,5.315E3,3.352E3,2.531E3,2.408E3,2.72E3,1.721E3,4.78E2,6.9E1,3.965E3,1.812E3,4.418E3,7.38E2,2.512E3,3.04E2,4.68E2,1.91E2,5.759E3,5.54E2,3.07E2,3.98E3,1.708E3,1.476E3,2.221E3,3.99E2,2.12E2,2.9E2,5.01E2,1.635E3,1.511E3,3.56E3,1.324E3,4.444E3,1.252E3,1.361E3,8.84E2,2.16E2,1.723E3,1.969E3,7.05E2,4.2E2,5.58E2,1.267E3,1.214E3,1.636E3,1.119E3,1.036E3,4.53E2,3.6E2],"tree_param":{"num_deleted":"0","num_feature":"14","num_nodes":"127","size_leaf_vector":"1"}},{"base_weights":[1.5764029E-4,-2.1240318E0,2.8613737E0,-3.3636057E0,-1.0121663E0,1.6865501E0,4.4283905E0,-4.337818E0,-2.716434E0,-1.3684179E0,1.7659362E-1,9.901829E-1,2.3073447E0,3.5163949E0,5.34765E0,-4.8226E0,-3.7735326E0,-3.043534E0,-2.209363E0,-1.7618963E0,-8.498087E-1,-1.1391035E-1,1.111985E0,-1.510396E-1,1.1249495E0,9.261068E-1,2.546647E0,2.9354975E0,3.8570476E0,4.7769527E0,6.1051908E0,-5.188537E0,-4.4712515E0,-4.0133457E0,-3.3812513E0,-3.270416E0,-2.8064542E0,-2.3312466E0,-1.5545827E0,-2.0126376E0,-1.3555667E0,-1.0341344E0,-2.6071215E-1,-1.9749083E-1,6.664357E-1,9.079225E-1,2.8421118E0,1.9261494E-1,-1.3466686E0,9.401985E-1,1.6320794E0,1.6083112E0,1.08092554E-1,1.8919095E0,2.7631643E0,2.806535E0,3.9731975E0,3.652582E0,4.4141264E0,4.224087E0,4.994812E0,5.7445183E0,6.663182E0,-1.6572493E0,-1.4150296E0,-1.3784366E0,-1.2466555E0,-1.2419422E0,-1.1598735E0,-1.0439692E0,-8.516783E-1,-1.0479362E0,-9.032004E-1,-8.725508E-1,-8.0929446E-1,-7.5884295E-1,-6.596334E-1,-4.8930514E-1,3.9542764E-1,-6.289902E-1,-5.1007795E-1,-4.5890853E-1,-3.2520348E-1,-2.8721997E-1,-4.9202028E-1,-2.859092E-1,1.1686597E-2,-1.0480725E-1,4.003749E-2,1.9434419E-2,4.3388173E-1,1.7535692E-1,4.2809483E-1,7.811345E-1,1.367001E0,-2.637969E-1,8.7438E-2,-7.675433E-1,-3.0974847E-1,1.632416E-1,4.0128732E-1,4.5282713E-1,7.2220266E-1,5.359366E-1,1.8358628E-1,-4.7445843E-1,9.9049985E-2,4.1133043E-1,6.9824505E-1,7.275344E-1,9.559638E-1,7.23135E-1,9.194798E-1,1.1047499E0,1.4389046E0,1.0336442E0,1.1875765E0,1.2817867E0,1.4902296E0,9.2980623E-1,1.3277725E0,1.3279644E0,1.5515944E0,1.5920993E0,1.8117015E0,1.929621E0,2.1918533E0],"categories":[],"categories_nodes":[],"categories_segments":[],"categories_sizes":[],"default_left":[0,0,0,0,0,0,0,0,0,0,0,0,0,0,0,0,0,0,0,0,0,0,0,0,0,0,0,0,0,0,0,0,0,0,0,0,0,0,0,0,0,0,0,0,0,0,0,0,0,0,0,0,0,0,0,0,0,0,0,0,0,0,0,0,0,0,0,0,0,0,0,0,0,0,0,0,0,0,0,0,0,0,0,0,0,0,0,0,0,0,0,0,0,0,0,0,0,0,0,0,0,0,0,0,0,0,0,0,0,0,0,0,0,0,0,0,0,0,0,0,0,0,0,0,0,0,0],"id":1,"left_children":[1,3,5,7,9,11,13,15,17,19,21,23,25,27,29,31,33,35,37,39,41,43,45,47,49,51,53,55,57,59,61,63,65,67,69,71,73,75,77,79,81,83,85,87,89,91,93,95,97,99,101,103,105,107,109,111,113,115,117,119,121,123,125,-1,-1,-1,-1,-1,-1,-1,-1,-1,-1,-1,-1,-1,-1,-1,-1,-1,-1,-1,-1,-1,-1,-1,-1,-1,-1,-1,-1,-1,-1,-1,-1,-1,-1,-1,-1,-1,-1,-1,-1,-1,-1,-1,-1,-1,-1,-1,-1,-1,-1,-1,-1,-1,-1,-1,-1,-1,-1,-1,-1,-1,-1,-1,-1],"loss_changes":[6.391986E5,8.318575E4,8.2488125E4,1.7982219E4,1.34759375E4,1.1069805E4,1.6077719E4,3.0976094E3,2.8379844E3,4.994539E3,1.9941171E3,1.8569814E3,4.4730625E3,1.8964766E3,4.103875E3,7.640469E2,4.820078E2,5.5146875E2,5.3339844E2,1.4154883E3,1.1468301E3,3.6537314E2,6.113806E2,5.245466E2,1.0101592E3,1.1164899E3,1.6307109E3,4.6633398E2,6.7572656E2,6.361875E2,7.8765625E2,4.4785156E2,1.0303516E2,4.4710938E1,9.738281E1,2.9723047E2,4.882422E1,1.4335547E2,2.3467554E2,2.2224219E2,2.4966406E2,3.7253613E2,5.2264233E2,2.5431267E2,2.542084E2,2.605298E2,6.2914917E1,1.05364426E2,1.0586316E2,1.2454434E3,2.704165E2,1.9255396E2,3.4234842E2,6.480967E2,1.2331562E3,3.1776953E2,7.613818E1,2.683125E2,1.06083984E2,3.3789648E2,3.7065625E2,2.900625E2,1.9151562E2,0E0,0E0,0E0,0E0,0E0,0E0,0E0,0E0,0E0,0E0,0E0,0E0,0E0,0E0,0E0,0E0,0E0,0E0,0E0,0E0,0E0,0E0,0E0,0E0,0E0,0E0,0E0,0E0,0E0,0E0,0E0,0E0,0E0,0E0,0E0,0E0,0E0,0E0,0E0,0E0,0E0,0E0,0E0,0E0,0E0,0E0,0E0,0E0,0E0,0E0,0E0,0E0,0E0,0E0,0E0,0E0,0E0,0E0,0E0,0E0,0E0,0E0,0E0,0E0],"parents":[2147483647,0,0,1,1,2,2,3,3,4,4,5,5,6,6,7,7,8,8,9,9,10,10,11,11,12,12,13,13,14,14,15,15,16,16,17,17,18,18,19,19,20,20,21,21,22,22,23,23,24,24,25,25,26,26,27,27,28,28,29,29,30,30,31,31,32,32,33,33,34,34,35,35,36,36,37,37,38,38,39,39,40,40,41,41,42,42,43,43,44,44,45,45,46,46,47,47,48,48,49,49,50,50,51,51,52,52,53,53,54,54,55,55,56,56,57,57,58,58,59,59,60,60,61,61,62,62],"right_children":[2,4,6,8,10,12,14,16,18,20,22,24,26,28,30,32,34,36,38,40,42,44,46,48,50,52,54,56,58,60,62,64,66,68,70,72,74,76,78,80,82,84,86,88,90,92,94,96,98,100,102,104,106,108,110,112,114,116,118,120,122,124,126,-1,-1,-1,-1,-1,-1,-1,-1,-1,-1,-1,-1,-1,-1,-1,-1,-1,-1,-1,-1,-1,-1,-1,-1,-1,-1,-1,-1,-1,-1,-1,-1,-1,-1,-1,-1,-1,-1,-1,-1,-1,-1,-1,-1,-1,-1,-1,-1,-1,-1,-1,-1,-1,-1,-1,-1,-1,-1,-1,-1,-1,-1,-1,-1],"split_conditions":[2.2925001E1,1.93E1,2.685E1,1.74E1,2.2425001E1,2.495E1,2.855E1,1.665E1,1.905E1,2.065E1,2.435E1,2.125E1,2.35E1,2.65E1,3.02E1,1.57E1,1.755E1,1.83E1,2.03E1,2.0425001E1,2.2075E1,1E-1,2.65E1,1E-1,2.525E1,9.7E1,8.9246875E2,2.895E1,2.895E1,2.8175001E1,3.145E1,1.555E1,1.665E1,1.71E1,1.85E1,1.815E1,1.875E1,1.545E1,2.305E1,2.02E1,2.125E1,9.078155E1,8.927414E2,2.355E1,8.9215564E2,9.2E1,2.8175001E1,8.9244745E2,1.9575E1,8.9333765E2,1E-1,7.255713E1,2.065E1,2.57E1,2.5625E1,4E1,2.99E1,2.77E1,3.035E1,8.9108905E2,8.915575E2,8.9136334E2,3.26E1,-1.6572493E0,-1.4150296E0,-1.3784366E0,-1.2466555E0,-1.2419422E0,-1.1598735E0,-1.0439692E0,-8.516783E-1,-1.0479362E0,-9.032004E-1,-8.725508E-1,-8.0929446E-1,-7.5884295E-1,-6.596334E-1,-4.8930514E-1,3.9542764E-1,-6.289902E-1,-5.1007795E-1,-4.5890853E-1,-3.2520348E-1,-2.8721997E-1,-4.9202028E-1,-2.859092E-1,1.1686597E-2,-1.0480725E-1,4.003749E-2,1.9434419E-2,4.3388173E-1,1.7535692E-1,4.2809483E-1,7.811345E-1,1.367001E0,-2.637969E-1,8.7438E-2,-7.675433E-1,-3.0974847E-1,1.632416E-1,4.0128732E-1,4.5282713E-1,7.2220266E-1,5.359366E-1,1.8358628E-1,-4.7445843E-1,9.9049985E-2,4.1133043E-1,6.9824505E-1,7.275344E-1,9.559638E-1,7.23135E-1,9.194798E-1,1.1047499E0,1.4389046E0,1.0336442E0,1.1875765E0,1.2817867E0,1.4902296E0,9.2980623E-1,1.3277725E0,1.3279644E0,1.5515944E0,1.5920993E0,1.8117015E0,1.929621E0,2.1918533E0],"split_indices":[7,7,0,7,0,7,7,0,0,7,0,0,0,7,0,7,0,7,0,0,7,13,0,6,0,3,2,0,0,0,0,0,7,0,0,0,7,4,0,7,0,1,9,0,2,10,0,9,0,9,13,1,0,0,0,10,0,7,0,9,2,2,0,0,0,0,0,0,0,0,0,0,0,0,0,0,0,0,0,0,0,0,0,0,0,0,0,0,0,0,0,0,0,0,0,0,0,0,0,0,0,0,0,0,0,0,0,0,0,0,0,0,0,0,0,0,0,0,0,0,0,0,0,0,0,0,0],"split_type":[0,0,0,0,0,0,0,0,0,0,0,0,0,0,0,0,0,0,0,0,0,0,0,0,0,0,0,0,0,0,0,0,0,0,0,0,0,0,0,0,0,0,0,0,0,0,0,0,0,0,0,0,0,0,0,0,0,0,0,0,0,0,0,0,0,0,0,0,0,0,0,0,0,0,0,0,0,0,0,0,0,0,0,0,0,0,0,0,0,0,0,0,0,0,0,0,0,0,0,0,0,0,0,0,0,0,0,0,0,0,0,0,0,0,0,0,0,0,0,0,0,0,0,0,0,0,0],"sum_hessian":[1.05168E5,6.0358E4,4.481E4,2.8539E4,3.1819E4,2.5611E4,1.9199E4,1.1389E4,1.715E4,2.4482E4,7.337E3,1.2072E4,1.3539E4,9.64E3,9.559E3,6.122E3,5.267E3,1.0422E4,6.728E3,1.3919E4,1.0563E4,5.599E3,1.738E3,1.275E3,1.0797E4,2E3,1.1539E4,3.567E3,6.073E3,5.456E3,4.103E3,2.992E3,3.13E3,3.263E3,2.004E3,5.319E3,5.103E3,5.67E3,1.058E3,8.605E3,5.314E3,8.045E3,2.518E3,5.058E3,5.41E2,1.556E3,1.82E2,9.91E2,2.84E2,7.916E3,2.881E3,1.09E3,9.1E2,2.87E3,8.669E3,3.176E3,3.91E2,4.448E3,1.625E3,1.548E3,3.908E3,2.499E3,1.604E3,1.742E3,1.25E3,2.24E3,8.9E2,1.74E3,1.523E3,1.691E3,3.13E2,2.857E3,2.462E3,2.62E3,2.483E3,2.264E3,3.406E3,1.031E3,2.7E1,6.777E3,1.828E3,3.235E3,2.079E3,7.143E3,9.02E2,7.6E2,1.758E3,3.467E3,1.591E3,3.06E2,2.35E2,9.6E2,5.96E2,1.62E2,2E1,8.3E1,9.08E2,5.7E1,2.27E2,3.966E3,3.95E3,2.49E3,3.91E2,9.24E2,1.66E2,1.05E2,8.05E2,1.309E3,1.561E3,4.824E3,3.845E3,1.258E3,1.918E3,2.93E2,9.8E1,2.66E3,1.788E3,1.301E3,3.24E2,2.38E2,1.31E3,9.35E2,2.973E3,1.013E3,1.486E3,1.188E3,4.16E2],"tree_param":{"num_deleted":"0","num_feature":"14","num_nodes":"127","size_leaf_vector":"1"}},{"base_weights":[2.1001835E-4,-1.4410166E0,2.0716205E0,-2.2943897E0,-6.005424E-1,1.4158298E0,3.381691E0,-2.997043E0,-1.8280838E0,-1.0040141E0,-5.9007004E-2,8.334106E-1,1.8798571E0,2.8700964E0,4.071503E0,-3.340575E0,-2.591045E0,-2.0343606E0,-1.4098668E0,-1.1911604E0,-4.9102843E-1,-2.6827988E-1,5.692687E-1,2.0170698E-1,1.0832636E0,1.3821424E0,2.3125794E0,2.5331166E0,3.1882393E0,3.780043E0,4.6027565E0,-3.9155307E0,-3.2110739E0,-2.7522597E0,-2.2872996E0,-2.1926382E0,-1.8897871E0,-1.4447377E0,-2.2516608E-1,-1.2922586E0,-1.0098509E0,-5.682667E-1,7.984682E-1,-1.0253515E0,-2.1193996E-1,4.075058E-1,1.4320494E0,4.4488373E-1,-5.73371E-1,5.2063495E-1,1.4182159E0,1.2204006E0,1.7068986E0,1.9886996E0,2.5176082E0,2.391028E0,2.9948545E0,3.0609796E0,3.5359497E0,3.452116E0,4.015995E0,4.296598E0,4.902709E0,-1.3409584E0,-1.0957996E0,-1.0065857E0,-8.9431334E-1,-8.4509224E-1,-7.6177377E-1,-7.0376545E-1,-5.0536585E-1,-7.117318E-1,-6.022573E-1,-5.744169E-1,-4.9041536E-1,-4.6354318E-1,-3.7245262E-1,-2.1207802E-1,3.009028E-1,-4.3014526E-1,-3.2760578E-1,-3.6398944E-1,-2.5647235E-1,-2.4809946E-1,-1.0977358E-1,1.4351258E-1,6.318153E-1,-2.4435288E-1,-6.20126E-1,-1.0815831E-1,3.3383686E-2,9.527434E-2,3.1985676E-1,1.8338571E-1,5.1757985E-1,-2.7327633E-1,1.6372426E-1,-5.172738E-1,-1.1454595E-1,3.6156416E-2,2.1703984E-1,2.9692894E-1,4.5626134E-1,3.1903088E-1,4.8527336E-1,4.690399E-1,6.5788746E-1,4.45728E-1,6.50861E-1,6.7902696E-1,8.686358E-1,6.606343E-1,8.0858254E-1,7.634844E-1,9.603382E-1,7.981687E-1,9.547469E-1,1.0207694E0,1.1640604E0,9.2825973E-1,1.1075453E0,1.1326046E0,1.2755094E0,1.2198135E0,1.3480499E0,1.4245766E0,1.5786275E0],"categories":[],"categories_nodes":[],"categories_segments":[],"categories_sizes":[],"default_left":[0,0,0,0,0,0,0,0,0,0,0,0,0,0,0,0,0,0,0,0,0,0,0,0,0,0,0,0,0,0,0,0,0,0,0,0,0,0,0,0,0,0,0,0,0,0,0,0,0,0,0,0,0,0,0,0,0,0,0,0,0,0,0,0,0,0,0,0,0,0,0,0,0,0,0,0,0,0,0,0,0,0,0,0,0,0,0,0,0,0,0,0,0,0,0,0,0,0,0,0,0,0,0,0,0,0,0,0,0,0,0,0,0,0,0,0,0,0,0,0,0,0,0,0,0,0,0],"id":2,"left_children":[1,3,5,7,9,11,13,15,17,19,21,23,25,27,29,31,33,35,37,39,41,43,45,47,49,51,53,55,57,59,61,63,65,67,69,71,73,75,77,79,81,83,85,87,89,91,93,95,97,99,101,103,105,107,109,111,113,115,117,119,121,123,125,-1,-1,-1,-1,-1,-1,-1,-1,-1,-1,-1,-1,-1,-1,-1,-1,-1,-1,-1,-1,-1,-1,-1,-1,-1,-1,-1,-1,-1,-1,-1,-1,-1,-1,-1,-1,-1,-1,-1,-1,-1,-1,-1,-1,-1,-1,-1,-1,-1,-1,-1,-1,-1,-1,-1,-1,-1,-1,-1,-1,-1,-1,-1,-1],"loss_changes":[3.1397153E5,4.4481008E4,3.7067594E4,1.0077328E4,6.8272324E3,7.7705273E3,5.0680312E3,1.70325E3,1.5931016E3,1.7184512E3,1.754373E3,2.0127842E3,3.4438398E3,8.783125E2,9.313047E2,4.821953E2,2.6939453E2,2.793047E2,2.5225293E2,2.3916602E2,4.7733118E2,4.2669995E2,4.6472913E2,6.818022E2,1.72154E3,3.8903027E2,5.6341406E2,2.5658203E2,1.7719531E2,2.926953E2,1.7784766E2,1.6100586E2,1.7008984E2,4.348047E1,6.518945E1,1.918457E2,3.8091797E1,1.19268555E2,1.0484589E2,2.3707715E2,1.4715088E2,2.3623975E2,1.1241907E2,1.505279E2,4.4750183E2,1.6604382E2,1.25533325E2,3.769743E2,1.8981174E2,2.7681537E2,2.5042969E2,3.0837207E2,1.6898047E2,2.990039E2,4.9651562E2,1.7103516E2,7.9274414E1,1.4323633E2,3.8776367E1,1.3141992E2,1.14296875E2,3.075586E1,3.521875E1,0E0,0E0,0E0,0E0,0E0,0E0,0E0,0E0,0E0,0E0,0E0,0E0,0E0,0E0,0E0,0E0,0E0,0E0,0E0,0E0,0E0,0E0,0E0,0E0,0E0,0E0,0E0,0E0,0E0,0E0,0E0,0E0,0E0,0E0,0E0,0E0,0E0,0E0,0E0,0E0,0E0,0E0,0E0,0E0,0E0,0E0,0E0,0E0,0E0,0E0,0E0,0E0,0E0,0E0,0E0,0E0,0E0,0E0,0E0,0E0,0E0,0E0,0E0,0E0],"parents":[2147483647,0,0,1,1,2,2,3,3,4,4,5,5,6,6,7,7,8,8,9,9,10,10,11,11,12,12,13,13,14,14,15,15,16,16,17,17,18,18,19,19,20,20,21,21,22,22,23,23,24,24,25,25,26,26,27,27,28,28,29,29,30,30,31,31,32,32,33,33,34,34,35,35,36,36,37,37,38,38,39,39,40,40,41,41,42,42,43,43,44,44,45,45,46,46,47,47,48,48,49,49,50,50,51,51,52,52,53,53,54,54,55,55,56,56,57,57,58,58,59,59,60,60,61,61,62,62],"right_children":[2,4,6,8,10,12,14,16,18,20,22,24,26,28,30,32,34,36,38,40,42,44,46,48,50,52,54,56,58,60,62,64,66,68,70,72,74,76,78,80,82,84,86,88,90,92,94,96,98,100,102,104,106,108,110,112,114,116,118,120,122,124,126,-1,-1,-1,-1,-1,-1,-1,-1,-1,-1,-1,-1,-1,-1,-1,-1,-1,-1,-1,-1,-1,-1,-1,-1,-1,-1,-1,-1,-1,-1,-1,-1,-1,-1,-1,-1,-1,-1,-1,-1,-1,-1,-1,-1,-1,-1,-1,-1,-1,-1,-1,-1,-1,-1,-1,-1,-1,-1,-1,-1,-1,-1,-1,-1],"split_conditions":[2.3175001E1,1.9475E1,2.7675001E1,1.755E1,2.13E1,2.495E1,2.9525002E1,1.675E1,1.935E1,2.14E1,2.375E1,2.25E1,2.61E1,2.7825E1,3.1E1,1.49E1,1.7725E1,1.845E1,2.1625E1,2.0375E1,2.41E1,1.94E1,2.58E1,1E-1,8.9294775E2,2.65E1,8.929907E2,2.92E1,2.99E1,2.9525002E1,3.145E1,1.46E1,1.6225E1,1.455E1,1.8925001E1,1.83E1,8.957698E2,2.01E1,2E-1,2.0175001E1,8.9213226E2,1.5125E1,2.58E1,1E-1,8.9387213E2,1E-1,4.8E1,8.9195135E2,2E1,2.375E1,2.43E1,8.939251E2,3.29E-1,2.61E1,2.77E1,8.9233655E2,3.6E1,8.9118884E2,3.1E1,8.9233606E2,8.9246875E2,8.9084924E2,3.26E1,-1.3409584E0,-1.0957996E0,-1.0065857E0,-8.9431334E-1,-8.4509224E-1,-7.6177377E-1,-7.0376545E-1,-5.0536585E-1,-7.117318E-1,-6.022573E-1,-5.744169E-1,-4.9041536E-1,-4.6354318E-1,-3.7245262E-1,-2.1207802E-1,3.009028E-1,-4.3014526E-1,-3.2760578E-1,-3.6398944E-1,-2.5647235E-1,-2.4809946E-1,-1.0977358E-1,1.4351258E-1,6.318153E-1,-2.4435288E-1,-6.20126E-1,-1.0815831E-1,3.3383686E-2,9.527434E-2,3.1985676E-1,1.8338571E-1,5.1757985E-1,-2.7327633E-1,1.6372426E-1,-5.172738E-1,-1.1454595E-1,3.6156416E-2,2.1703984E-1,2.9692894E-1,4.5626134E-1,3.1903088E-1,4.8527336E-1,4.690399E-1,6.5788746E-1,4.45728E-1,6.50861E-1,6.7902696E-1,8.686358E-1,6.606343E-1,8.0858254E-1,7.634844E-1,9.603382E-1,7.981687E-1,9.547469E-1,1.0207694E0,1.1640604E0,9.2825973E-1,1.1075453E0,1.1326046E0,1.2755094E0,1.2198135E0,1.3480499E0,1.4245766E0,1.5786275E0],"split_indices":[7,7,0,7,7,0,7,0,0,0,0,0,7,7,0,7,0,7,0,7,0,0,0,6,9,0,9,0,0,0,7,0,7,4,0,0,9,0,13,0,9,11,0,6,9,13,10,9,0,0,7,2,5,0,7,2,10,2,0,9,2,2,0,0,0,0,0,0,0,0,0,0,0,0,0,0,0,0,0,0,0,0,0,0,0,0,0,0,0,0,0,0,0,0,0,0,0,0,0,0,0,0,0,0,0,0,0,0,0,0,0,0,0,0,0,0,0,0,0,0,0,0,0,0,0,0,0],"split_type":[0,0,0,0,0,0,0,0,0,0,0,0,0,0,0,0,0,0,0,0,0,0,0,0,0,0,0,0,0,0,0,0,0,0,0,0,0,0,0,0,0,0,0,0,0,0,0,0,0,0,0,0,0,0,0,0,0,0,0,0,0,0,0,0,0,0,0,0,0,0,0,0,0,0,0,0,0,0,0,0,0,0,0,0,0,0,0,0,0,0,0,0,0,0,0,0,0,0,0,0,0,0,0,0,0,0,0,0,0,0,0,0,0,0,0,0,0,0,0,0,0,0,0,0,0,0,0],"sum_hessian":[1.05168E5,6.2018E4,4.315E4,3.0772E4,3.1246E4,2.8757E4,1.4393E4,1.2273E4,1.8499E4,1.7905E4,1.3341E4,1.2753E4,1.6004E4,8.267E3,6.126E3,6.644E3,5.629E3,1.2386E4,6.113E3,1.3118E4,4.787E3,1.0008E4,3.333E3,3.615E3,9.138E3,7.445E3,8.559E3,4.019E3,4.248E3,3.961E3,2.165E3,1.216E3,5.428E3,3.672E3,1.957E3,5.906E3,6.48E3,5.938E3,1.75E2,8.418E3,4.7E3,4.517E3,2.7E2,6.92E2,9.316E3,2.808E3,5.25E2,2.752E3,8.63E2,3.411E3,5.727E3,4.973E3,2.472E3,3.322E3,5.237E3,3.078E3,9.41E2,3.117E3,1.131E3,1.664E3,2.297E3,1.079E3,1.086E3,3.86E2,8.3E2,3.328E3,2.1E3,2.807E3,8.65E2,1.781E3,1.76E2,2.99E3,2.916E3,5.897E3,5.83E2,3.97E3,1.968E3,1.26E2,4.9E1,4.928E3,3.49E3,2.029E3,2.671E3,1.981E3,2.536E3,2.18E2,5.2E1,5.77E2,1.15E2,6.382E3,2.934E3,2.472E3,3.36E2,1.39E2,3.86E2,1.9E2,2.562E3,1.22E2,7.41E2,1.148E3,2.263E3,1.109E3,4.618E3,3.567E3,1.406E3,1.912E3,5.6E2,8.81E2,2.441E3,3.135E3,2.102E3,1.904E3,1.174E3,3E2,6.41E2,7.31E2,2.386E3,8.23E2,3.08E2,6.73E2,9.91E2,1.145E3,1.152E3,5.07E2,5.72E2,7.7E2,3.16E2],"tree_param":{"num_deleted":"0","num_feature":"14","num_nodes":"127","size_leaf_vector":"1"}},{"base_weights":[2.5088832E-4,-1.0590814E0,1.3959644E0,-1.7622854E0,-5.981477E-1,7.91333E-1,2.1483428E0,-2.2454314E0,-1.4893833E0,-8.825901E-1,-1.4065096E-1,3.520408E-1,1.1466005E0,1.659904E0,2.5890548E0,-2.5881987E0,-2.0164373E0,-1.686935E0,-1.2496138E0,-1.0153586E0,-6.144501E-1,-4.8646647E-1,1.1400239E-1,2.5037768E-1,9.839654E-1,8.071834E-1,1.2955276E0,1.5082229E0,2.002466E0,2.3181129E0,3.0348496E0,-2.6829336E0,-2.2793658E0,-2.0980935E0,-1.7867188E0,-1.7539676E0,-1.4776267E0,-1.3302191E0,-1.0265982E0,-1.1250163E0,-8.81662E-1,-8.3828485E-1,-4.9116486E-1,-7.1647125E-1,-2.8356457E-1,-3.525969E-1,2.9424852E-1,5.132917E-2,4.4949773E-1,5.400801E-1,1.4632804E0,5.0673723E-1,1.0410571E0,1.125792E0,1.527386E0,1.3421906E0,1.8952086E0,1.8213149E0,2.2920096E0,2.106086E0,2.4768138E0,2.514594E0,3.1678329E0,-9.088162E-1,-7.8587943E-1,-7.667331E-1,-6.0284E-1,-6.4129627E-1,-5.728392E-1,-5.4170716E-1,-2.2513427E-1,-5.457463E-1,-4.499583E-1,-5.409259E-1,-4.2698467E-1,-4.5313638E-1,-3.6316693E-1,-3.6407778E-1,-2.632284E-1,-3.7223676E-1,-2.9361764E-1,-3.1269342E-1,-2.2792394E-1,-2.860195E-1,-1.827992E-1,-1.6391745E-1,-4.4178743E-2,-2.9383266E-1,-1.3000251E-1,-1.2513621E-1,-3.8121756E-2,-7.8124E-2,-3.4507668E-1,-9.3307205E-2,1.17276184E-1,2.051754E-3,3.6360222E-1,6.6788025E-2,1.7902705E-1,7.1700506E-2,2.3839909E-1,3.204123E-1,5.4966074E-1,8.3605506E-2,2.1775061E-1,2.4095139E-1,3.8067016E-1,2.6368314E-1,3.7488317E-1,3.5941958E-1,5.0661665E-1,3.2742968E-1,5.152825E-1,5.242848E-1,7.3689985E-1,4.9200812E-1,6.185093E-1,6.246171E-1,8.2411665E-1,4.8951873E-1,6.8142074E-1,6.875674E-1,7.990125E-1,5.5086917E-1,7.9392105E-1,9.0734977E-1,1.0422578E0],"categories":[],"categories_nodes":[],"categories_segments":[],"categories_sizes":[],"default_left":[0,0,0,0,0,0,0,0,0,0,0,0,0,0,0,0,0,0,0,0,0,0,0,0,0,0,0,0,0,0,0,0,0,0,0,0,0,0,0,0,0,0,0,0,0,0,0,0,0,0,0,0,0,0,0,0,0,0,0,0,0,0,0,0,0,0,0,0,0,0,0,0,0,0,0,0,0,0,0,0,0,0,0,0,0,0,0,0,0,0,0,0,0,0,0,0,0,0,0,0,0,0,0,0,0,0,0,0,0,0,0,0,0,0,0,0,0,0,0,0,0,0,0,0,0,0,0],"id":3,"left_children":[1,3,5,7,9,11,13,15,17,19,21,23,25,27,29,31,33,35,37,39,41,43,45,47,49,51,53,55,57,59,61,63,65,67,69,71,73,75,77,79,81,83,85,87,89,91,93,95,97,99,101,103,105,107,109,111,113,115,117,119,121,123,125,-1,-1,-1,-1,-1,-1,-1,-1,-1,-1,-1,-1,-1,-1,-1,-1,-1,-1,-1,-1,-1,-1,-1,-1,-1,-1,-1,-1,-1,-1,-1,-1,-1,-1,-1,-1,-1,-1,-1,-1,-1,-1,-1,-1,-1,-1,-1,-1,-1,-1,-1,-1,-1,-1,-1,-1,-1,-1,-1,-1,-1,-1,-1,-1],"loss_changes":[1.5549644E5,1.9378703E4,2.0642188E4,3.1179766E3,4.699966E3,3.9265322E3,4.3480625E3,6.6533203E2,7.1460156E2,7.922363E2,1.219553E3,7.226207E2,7.0213477E2,4.9543555E2,1.2765469E3,9.388672E1,9.240625E1,1.1376367E2,1.2157324E2,2.1736719E2,2.0318823E2,2.7388037E2,6.7090704E2,3.8419427E2,3.3090405E2,2.9775342E2,3.7872168E2,4.2492578E2,1.5008301E2,2.1733203E2,2.697422E2,4.9333984E1,5.521875E1,2.409375E1,2.5205078E1,1.01228516E2,3.3125977E1,1.0644043E2,4.970227E1,1.3730957E2,1.307456E2,6.84447E1,9.03241E1,2.0447534E2,6.519827E1,1.6315994E2,3.3680515E2,2.5038712E2,1.617663E2,6.19729E1,1.0725659E2,9.273413E1,1.2830371E2,1.6960352E2,2.1491211E2,4.3671973E2,1.6092871E2,7.567041E1,1.0204736E2,2.1884766E2,1.2420117E2,6.863965E1,1.2970117E2,0E0,0E0,0E0,0E0,0E0,0E0,0E0,0E0,0E0,0E0,0E0,0E0,0E0,0E0,0E0,0E0,0E0,0E0,0E0,0E0,0E0,0E0,0E0,0E0,0E0,0E0,0E0,0E0,0E0,0E0,0E0,0E0,0E0,0E0,0E0,0E0,0E0,0E0,0E0,0E0,0E0,0E0,0E0,0E0,0E0,0E0,0E0,0E0,0E0,0E0,0E0,0E0,0E0,0E0,0E0,0E0,0E0,0E0,0E0,0E0,0E0,0E0,0E0,0E0],"parents":[2147483647,0,0,1,1,2,2,3,3,4,4,5,5,6,6,7,7,8,8,9,9,10,10,11,11,12,12,13,13,14,14,15,15,16,16,17,17,18,18,19,19,20,20,21,21,22,22,23,23,24,24,25,25,26,26,27,27,28,28,29,29,30,30,31,31,32,32,33,33,34,34,35,35,36,36,37,37,38,38,39,39,40,40,41,41,42,42,43,43,44,44,45,45,46,46,47,47,48,48,49,49,50,50,51,51,52,52,53,53,54,54,55,55,56,56,57,57,58,58,59,59,60,60,61,61,62,62],"right_children":[2,4,6,8,10,12,14,16,18,20,22,24,26,28,30,32,34,36,38,40,42,44,46,48,50,52,54,56,58,60,62,64,66,68,70,72,74,76,78,80,82,84,86,88,90,92,94,96,98,100,102,104,106,108,110,112,114,116,118,120,122,124,126,-1,-1,-1,-1,-1,-1,-1,-1,-1,-1,-1,-1,-1,-1,-1,-1,-1,-1,-1,-1,-1,-1,-1,-1,-1,-1,-1,-1,-1,-1,-1,-1,-1,-1,-1,-1,-1,-1,-1,-1,-1,-1,-1,-1,-1,-1,-1,-1,-1,-1,-1,-1,-1,-1,-1,-1,-1,-1,-1,-1,-1,-1,-1,-1],"split_conditions":[2.285E1,1.89E1,2.67E1,1.69E1,2.105E1,2.4425001E1,2.825E1,1.595E1,1.85E1,2.055E1,8.931045E2,1E-1,8.924266E2,2.835E1,3.035E1,1.595E1,1.7175001E1,1.595E1,1.9475E1,1.97E1,1.475E1,2.1625E1,2.03E1,2.4175001E1,8.919975E2,2.54E1,2.6375E1,8.9373474E2,1.3675E1,2.875E1,2.965E1,1.4224999E1,8.9441974E2,1.4275E1,1.89E1,8.952052E2,1.755E1,1.4925E1,1.345E1,1.95E1,8.918825E2,2.175E1,1E-1,8.9185785E2,2.79E-1,1E-1,2.185E1,8.9633514E2,1.21E1,2.455E1,2.4E1,3.2E-1,2.79E-1,9.85E0,2.525E1,2.72E-1,1.2525E1,8.919053E2,8.913373E2,8.929249E2,1.11E1,8.902517E2,3.1725E1,-9.088162E-1,-7.8587943E-1,-7.667331E-1,-6.0284E-1,-6.4129627E-1,-5.728392E-1,-5.4170716E-1,-2.2513427E-1,-5.457463E-1,-4.499583E-1,-5.409259E-1,-4.2698467E-1,-4.5313638E-1,-3.6316693E-1,-3.6407778E-1,-2.632284E-1,-3.7223676E-1,-2.9361764E-1,-3.1269342E-1,-2.2792394E-1,-2.860195E-1,-1.827992E-1,-1.6391745E-1,-4.4178743E-2,-2.9383266E-1,-1.3000251E-1,-1.2513621E-1,-3.8121756E-2,-7.8124E-2,-3.4507668E-1,-9.3307205E-2,1.17276184E-1,2.051754E-3,3.6360222E-1,6.6788025E-2,1.7902705E-1,7.1700506E-2,2.3839909E-1,3.204123E-1,5.4966074E-1,8.3605506E-2,2.1775061E-1,2.4095139E-1,3.8067016E-1,2.6368314E-1,3.7488317E-1,3.5941958E-1,5.0661665E-1,3.2742968E-1,5.152825E-1,5.242848E-1,7.3689985E-1,4.9200812E-1,6.185093E-1,6.246171E-1,8.2411665E-1,4.8951873E-1,6.8142074E-1,6.875674E-1,7.990125E-1,5.5086917E-1,7.9392105E-1,9.0734977E-1,1.0422578E0],"split_indices":[0,7,0,7,7,7,7,0,0,0,9,13,9,0,7,7,0,4,0,7,11,0,0,0,2,0,7,2,11,0,0,7,9,4,0,9,0,4,4,0,9,0,13,9,12,6,7,2,11,0,0,12,5,11,0,5,11,2,2,2,11,9,0,0,0,0,0,0,0,0,0,0,0,0,0,0,0,0,0,0,0,0,0,0,0,0,0,0,0,0,0,0,0,0,0,0,0,0,0,0,0,0,0,0,0,0,0,0,0,0,0,0,0,0,0,0,0,0,0,0,0,0,0,0,0,0,0],"split_type":[0,0,0,0,0,0,0,0,0,0,0,0,0,0,0,0,0,0,0,0,0,0,0,0,0,0,0,0,0,0,0,0,0,0,0,0,0,0,0,0,0,0,0,0,0,0,0,0,0,0,0,0,0,0,0,0,0,0,0,0,0,0,0,0,0,0,0,0,0,0,0,0,0,0,0,0,0,0,0,0,0,0,0,0,0,0,0,0,0,0,0,0,0,0,0,0,0,0,0,0,0,0,0,0,0,0,0,0,0,0,0,0,0,0,0,0,0,0,0,0,0,0,0,0,0,0,0],"sum_hessian":[1.05168E5,5.9789E4,4.5379E4,2.3672E4,3.6117E4,2.5161E4,2.0218E4,8.542E3,1.513E4,2.227E4,1.3847E4,1.1251E4,1.391E4,9.592E3,1.0626E4,3.417E3,5.125E3,8.292E3,6.838E3,1.4893E4,7.377E3,5.872E3,7.975E3,9.693E3,1.558E3,4.244E3,9.666E3,6.652E3,2.94E3,6.613E3,4.013E3,2.609E3,8.08E2,3.775E3,1.35E3,6.275E3,2.017E3,5.019E3,1.819E3,8.178E3,6.715E3,2.618E3,4.759E3,2.751E3,3.121E3,2.222E3,5.753E3,4.848E3,4.845E3,8.1E2,7.48E2,1.859E3,2.385E3,5.584E3,4.082E3,4.658E3,1.994E3,1.813E3,1.127E3,2.837E3,3.776E3,8.21E2,3.192E3,3.96E2,2.213E3,3.95E2,4.13E2,3.112E3,6.63E2,1.325E3,2.5E1,4.989E3,1.286E3,2.84E2,1.733E3,1.998E3,3.021E3,8.04E2,1.015E3,4.561E3,3.617E3,2.894E3,3.821E3,1.74E3,8.78E2,4.1E3,6.59E2,1.425E3,1.326E3,1.683E3,1.438E3,1.993E3,2.29E2,7.92E2,4.961E3,4.67E3,1.78E2,1.908E3,2.937E3,3.72E2,4.38E2,3.63E2,3.85E2,9.12E2,9.47E2,1.169E3,1.216E3,1.868E3,3.716E3,1.345E3,2.737E3,2.795E3,1.863E3,1.582E3,4.12E2,1.038E3,7.75E2,7.75E2,3.52E2,7.36E2,2.101E3,1.903E3,1.873E3,1.36E2,6.85E2,2.182E3,1.01E3],"tree_param":{"num_deleted":"0","num_feature":"14","num_nodes":"127","size_leaf_vector":"1"}},{"base_weights":[2.0898605E-4,-7.9221624E-1,9.1787034E-1,-1.3025492E0,-5.135057E-1,4.5165038E-1,1.4565737E0,-1.508277E0,-1.0209881E0,-6.2073934E-1,-4.373555E-2,2.2340375E-1,6.9963956E-1,1.2159452E0,1.9456414E0,-1.7519006E0,-1.3942802E0,-1.1411741E0,-9.024872E-1,-7.505433E-1,-4.3809742E-1,-3.6193416E-1,9.613532E-2,-2.9668912E-1,2.8132936E-1,8.332662E-1,3.1436574E-1,9.5912045E-1,1.4482452E0,1.6900705E0,2.1731505E0,-1.9090904E0,-1.486956E0,-1.4357101E0,-1.1064148E0,-1.220677E0,-9.35137E-1,-9.604836E-1,-7.344112E-1,-8.669109E-1,-6.1825866E-1,-4.0249825E-1,-8.937868E-1,-2.3217973E-1,-4.4604838E-1,4.423699E-2,8.0862594E-1,-8.0144495E-2,-7.2487533E-1,2.1340922E-1,5.211963E-1,6.4660406E-1,9.754315E-1,-3.6265892E-1,4.111435E-1,6.650826E-1,1.0707364E0,1.1248628E0,1.5385864E0,1.6222101E0,2.0460155E0,2.0905452E0,2.4993618E0,-6.180643E-1,-5.441032E-1,-4.7755805E-1,-4.2785093E-1,-4.5456168E-1,-4.073717E-1,-4.3786696E-1,-2.6227155E-1,-3.9303827E-1,-3.5291627E-1,-2.8532827E-1,1.6635981E-1,-3.3461553E-1,-2.7804154E-1,-2.2808447E-1,-9.406931E-2,-2.689912E-1,-1.9465518E-1,-2.3886132E-1,-1.500978E-1,-1.5026987E-1,-8.351062E-2,-3.58317E-1,-1.71296E-1,-9.278026E-2,-1.2666328E-2,-1.514358E-1,1.5458088E-4,9.788899E-3,4.7325787E-1,1.510105E-1,3.9195037E-1,-1.3250655E-1,-3.3995651E-3,-5.04128E-1,-1.8500723E-1,4.0837668E-2,1.7789748E-1,9.3308896E-2,2.2147512E-1,1.012528E-1,2.2129546E-1,1.395565E-1,3.0715466E-1,-4.1586396E-1,-8.744538E-2,7.5365335E-2,1.798142E-1,1.1789653E-1,2.525326E-1,2.726212E-1,3.693085E-1,2.5356257E-1,3.9553905E-1,3.7626275E-1,5.0560874E-1,4.4634914E-1,5.5421644E-1,5.937794E-1,8.293422E-1,5.7155114E-1,6.638873E-1,6.611459E-1,7.843215E-1],"categories":[],"categories_nodes":[],"categories_segments":[],"categories_sizes":[],"default_left":[0,0,0,0,0,0,0,0,0,0,0,0,0,0,0,0,0,0,0,0,0,0,0,0,0,0,0,0,0,0,0,0,0,0,0,0,0,0,0,0,0,0,0,0,0,0,0,0,0,0,0,0,0,0,0,0,0,0,0,0,0,0,0,0,0,0,0,0,0,0,0,0,0,0,0,0,0,0,0,0,0,0,0,0,0,0,0,0,0,0,0,0,0,0,0,0,0,0,0,0,0,0,0,0,0,0,0,0,0,0,0,0,0,0,0,0,0,0,0,0,0,0,0,0,0,0,0],"id":4,"left_children":[1,3,5,7,9,11,13,15,17,19,21,23,25,27,29,31,33,35,37,39,41,43,45,47,49,51,53,55,57,59,61,63,65,67,69,71,73,75,77,79,81,83,85,87,89,91,93,95,97,99,101,103,105,107,109,111,113,115,117,119,121,123,125,-1,-1,-1,-1,-1,-1,-1,-1,-1,-1,-1,-1,-1,-1,-1,-1,-1,-1,-1,-1,-1,-1,-1,-1,-1,-1,-1,-1,-1,-1,-1,-1,-1,-1,-1,-1,-1,-1,-1,-1,-1,-1,-1,-1,-1,-1,-1,-1,-1,-1,-1,-1,-1,-1,-1,-1,-1,-1,-1,-1,-1,-1,-1,-1],"loss_changes":[7.647731E4,8.0265117E3,1.223909E4,1.1531406E3,1.8388174E3,1.4786455E3,2.6583438E3,3.1738477E2,1.18875E2,7.042383E2,3.0201285E2,4.099873E2,6.44355E2,9.028242E2,4.2973633E2,1.498789E2,9.20332E1,6.726367E1,4.0664307E1,2.668672E2,1.9996777E2,2.251065E1,1.7427412E2,1.2641395E2,1.9934918E2,2.4605566E2,2.1151962E2,2.3562012E2,2.3070117E2,8.1583984E1,1.0094336E2,2.9398438E1,6.465576E0,4.0365234E1,8.0059326E1,1.0383789E1,2.8268127E1,1.5409668E1,1.1661621E1,5.930664E1,1.7027783E2,1.397898E2,8.606714E1,1.1950676E1,3.2945267E1,7.816807E1,4.797603E1,2.2560053E1,4.630986E1,2.7986816E2,1.2298334E2,1.1293921E2,1.2984082E2,2.9027664E1,8.4832855E1,9.505414E1,1.3437744E2,9.314551E1,2.5734082E2,8.672803E1,2.133667E1,6.726465E1,2.1132812E1,0E0,0E0,0E0,0E0,0E0,0E0,0E0,0E0,0E0,0E0,0E0,0E0,0E0,0E0,0E0,0E0,0E0,0E0,0E0,0E0,0E0,0E0,0E0,0E0,0E0,0E0,0E0,0E0,0E0,0E0,0E0,0E0,0E0,0E0,0E0,0E0,0E0,0E0,0E0,0E0,0E0,0E0,0E0,0E0,0E0,0E0,0E0,0E0,0E0,0E0,0E0,0E0,0E0,0E0,0E0,0E0,0E0,0E0,0E0,0E0,0E0,0E0,0E0,0E0],"parents":[2147483647,0,0,1,1,2,2,3,3,4,4,5,5,6,6,7,7,8,8,9,9,10,10,11,11,12,12,13,13,14,14,15,15,16,16,17,17,18,18,19,19,20,20,21,21,22,22,23,23,24,24,25,25,26,26,27,27,28,28,29,29,30,30,31,31,32,32,33,33,34,34,35,35,36,36,37,37,38,38,39,39,40,40,41,41,42,42,43,43,44,44,45,45,46,46,47,47,48,48,49,49,50,50,51,51,52,52,53,53,54,54,55,55,56,56,57,57,58,58,59,59,60,60,61,61,62,62],"right_children":[2,4,6,8,10,12,14,16,18,20,22,24,26,28,30,32,34,36,38,40,42,44,46,48,50,52,54,56,58,60,62,64,66,68,70,72,74,76,78,80,82,84,86,88,90,92,94,96,98,100,102,104,106,108,110,112,114,116,118,120,122,124,126,-1,-1,-1,-1,-1,-1,-1,-1,-1,-1,-1,-1,-1,-1,-1,-1,-1,-1,-1,-1,-1,-1,-1,-1,-1,-1,-1,-1,-1,-1,-1,-1,-1,-1,-1,-1,-1,-1,-1,-1,-1,-1,-1,-1,-1,-1,-1,-1,-1,-1,-1,-1,-1,-1,-1,-1,-1,-1,-1,-1,-1,-1,-1,-1],"split_conditions":[2.235E1,1.855E1,2.63E1,1.765E1,2.2025002E1,2.4625E1,2.93E1,1.5825E1,1.44E1,2.01E1,1.295E1,2.0775002E1,9.8E1,2.715E1,3.005E1,1.5825E1,1.78E1,1.8925001E1,1.8925001E1,1.96E1,3E-1,8.92761E2,2.515E1,9.7E1,8.9494995E2,2.575E1,2.2025002E1,2.4E1,8.9185864E2,3.1E1,3.2075E1,1.49E1,1.615E1,8E0,8.9400806E2,1.8E1,1E-1,1E1,2.015E1,8.952964E2,1.5625E1,8.930334E2,2.01E1,2.19E1,2.455E1,8.959654E2,8.913901E2,1.985E1,1.91E1,4.18E-1,2.215E1,8.921968E2,8.911392E2,1.93E1,2.48E1,2.55E1,8.9167584E2,1.28E1,1.005E1,8.9195135E2,4.353448E1,8.9082166E2,3.1225E1,-6.180643E-1,-5.441032E-1,-4.7755805E-1,-4.2785093E-1,-4.5456168E-1,-4.073717E-1,-4.3786696E-1,-2.6227155E-1,-3.9303827E-1,-3.5291627E-1,-2.8532827E-1,1.6635981E-1,-3.3461553E-1,-2.7804154E-1,-2.2808447E-1,-9.406931E-2,-2.689912E-1,-1.9465518E-1,-2.3886132E-1,-1.500978E-1,-1.5026987E-1,-8.351062E-2,-3.58317E-1,-1.71296E-1,-9.278026E-2,-1.2666328E-2,-1.514358E-1,1.5458088E-4,9.788899E-3,4.7325787E-1,1.510105E-1,3.9195037E-1,-1.3250655E-1,-3.3995651E-3,-5.04128E-1,-1.8500723E-1,4.0837668E-2,1.7789748E-1,9.3308896E-2,2.2147512E-1,1.012528E-1,2.2129546E-1,1.395565E-1,3.0715466E-1,-4.1586396E-1,-8.744538E-2,7.5365335E-2,1.798142E-1,1.1789653E-1,2.525326E-1,2.726212E-1,3.693085E-1,2.5356257E-1,3.9553905E-1,3.7626275E-1,5.0560874E-1,4.4634914E-1,5.5421644E-1,5.937794E-1,8.293422E-1,5.7155114E-1,6.638873E-1,6.611459E-1,7.843215E-1],"split_indices":[7,7,0,0,0,7,0,7,4,7,11,0,3,7,7,0,7,0,0,0,6,2,0,3,9,7,0,10,2,0,7,0,0,3,9,0,13,3,0,9,4,9,0,7,0,2,2,0,0,12,0,9,2,0,0,7,2,11,4,2,8,9,0,0,0,0,0,0,0,0,0,0,0,0,0,0,0,0,0,0,0,0,0,0,0,0,0,0,0,0,0,0,0,0,0,0,0,0,0,0,0,0,0,0,0,0,0,0,0,0,0,0,0,0,0,0,0,0,0,0,0,0,0,0,0,0,0],"split_type":[0,0,0,0,0,0,0,0,0,0,0,0,0,0,0,0,0,0,0,0,0,0,0,0,0,0,0,0,0,0,0,0,0,0,0,0,0,0,0,0,0,0,0,0,0,0,0,0,0,0,0,0,0,0,0,0,0,0,0,0,0,0,0,0,0,0,0,0,0,0,0,0,0,0,0,0,0,0,0,0,0,0,0,0,0,0,0,0,0,0,0,0,0,0,0,0,0,0,0,0,0,0,0,0,0,0,0,0,0,0,0,0,0,0,0,0,0,0,0,0,0,0,0,0,0,0,0],"sum_hessian":[1.05168E5,5.6435E4,4.8733E4,1.9933E4,3.6502E4,2.6125E4,2.2608E4,1.1515E4,8.418E3,2.9718E4,6.784E3,1.3605E4,1.252E4,1.5155E4,7.453E3,3.666E3,7.849E3,4.175E3,4.243E3,1.737E4,1.2348E4,2.071E3,4.713E3,1.363E3,1.2242E4,9.295E3,3.225E3,7.2E3,7.955E3,3.514E3,3.939E3,2.297E3,1.369E3,6.858E3,9.91E2,3.009E3,1.166E3,3.151E3,1.092E3,9.238E3,8.132E3,1.1455E4,8.93E2,8.16E2,1.255E3,4.394E3,3.19E2,9.06E2,4.57E2,9.542E3,2.7E3,4.021E3,5.274E3,4.03E2,2.822E3,1.983E3,5.217E3,1.74E3,6.215E3,2.956E3,5.58E2,3.149E3,7.9E2,8.81E2,1.416E3,4.93E2,8.76E2,3.383E3,3.475E3,3.91E2,6E2,9.87E2,2.022E3,1.154E3,1.2E1,5.57E2,2.594E3,1.028E3,6.4E1,8.127E3,1.111E3,3.239E3,4.893E3,6.388E3,5.067E3,4.61E2,4.32E2,5.8E2,2.36E2,1.109E3,1.46E2,4.362E3,3.2E1,1.99E2,1.2E2,1.44E2,7.62E2,4.5E1,4.12E2,7.929E3,1.613E3,1.373E3,1.327E3,9.16E2,3.105E3,4.58E2,4.816E3,2.5E1,3.78E2,1.527E3,1.295E3,7.82E2,1.201E3,2.598E3,2.619E3,7.14E2,1.026E3,2.119E3,4.096E3,1.856E3,1.1E3,5.14E2,4.4E1,1.259E3,1.89E3,2.27E2,5.63E2],"tree_param":{"num_deleted":"0","num_feature":"14","num_nodes":"127","size_leaf_vector":"1"}},{"base_weights":[1.6146203E-4,-5.093643E-1,7.160096E-1,-8.3785564E-1,-2.5803387E-1,4.6399838E-1,1.1511314E0,-1.0983557E0,-7.0481735E-1,-4.178956E-1,-4.686792E-2,1.6846427E-1,5.861186E-1,9.1779214E-1,1.347046E0,-1.2518909E0,-9.5281565E-1,-7.777282E-1,-5.5890054E-1,-4.9166116E-1,-2.609745E-1,-2.9791492E-1,8.603206E-2,-8.038969E-2,3.1128317E-1,5.4045963E-1,9.185532E-1,1.0006846E0,6.091702E-1,1.1902463E0,1.5259088E0,-1.2918912E0,-1.0205474E0,-9.7973704E-1,-7.3367566E-1,-8.3137906E-1,-6.3624823E-1,-7.942688E-1,-4.3536577E-1,-6.9938153E-1,-4.2229015E-1,-4.3871564E-1,-1.8204497E-1,-5.1370436E-1,-2.2451642E-1,1.7338252E-3,2.5039408E-1,-1.0760638E-1,7.674555E-1,2.592673E-1,1.0745553E0,4.3753603E-1,6.9925445E-1,8.059208E-1,1.3205905E0,8.1118745E-1,1.1043143E0,3.167619E-1,7.0762604E-1,1.071556E0,1.3621734E0,1.4145633E0,1.6958961E0,-5.202544E-1,-3.774285E-1,-2.8500736E-1,-4.1703644E-1,-3.095318E-1,-2.714415E-1,-2.3224445E-1,-1.28623E-1,-2.5378758E-1,-1.7464297E-1,-2.3811948E-1,-1.8003035E-1,-2.73227E-1,-2.0567007E-1,-1.1840649E-1,-2.8913206E-1,-2.1397327E-1,1.5662864E-2,-1.4327946E-1,-9.932007E-2,-1.4844532E-1,-1.0064488E-1,-5.6752555E-2,4.6809354E-1,-2.1105315E-1,-9.427763E-2,-4.6945795E-2,-1.2076359E-1,-6.712141E-2,2.3360228E-2,9.840631E-2,-3.6665607E-2,3.0864697E-2,-5.084322E-2,3.9655197E-2,3.8267168E-1,5.426067E-2,1.7957741E-1,1.3022481E-1,3.7979734E-1,7.423654E-2,1.8253396E-1,1.6240913E-1,2.4490671E-1,2.3197474E-1,4.2654878E-1,3.4573627E-1,5.2044225E-1,1.4668052E-1,2.8883925E-1,2.2196059E-1,3.5548207E-1,1.1539671E-1,-7.344219E-2,1.5507153E-1,2.4080639E-1,3.0214897E-1,4.4673494E-1,4.9238256E-1,3.7369373E-1,3.610655E-1,4.6460426E-1,4.8319882E-1,5.9974116E-1],"categories":[],"categories_nodes":[],"categories_segments":[],"categories_sizes":[],"default_left":[0,0,0,0,0,0,0,0,0,0,0,0,0,0,0,0,0,0,0,0,0,0,0,0,0,0,0,0,0,0,0,0,0,0,0,0,0,0,0,0,0,0,0,0,0,0,0,0,0,0,0,0,0,0,0,0,0,0,0,0,0,0,0,0,0,0,0,0,0,0,0,0,0,0,0,0,0,0,0,0,0,0,0,0,0,0,0,0,0,0,0,0,0,0,0,0,0,0,0,0,0,0,0,0,0,0,0,0,0,0,0,0,0,0,0,0,0,0,0,0,0,0,0,0,0,0,0],"id":5,"left_children":[1,3,5,7,9,11,13,15,17,19,21,23,25,27,29,31,33,35,37,39,41,43,45,47,49,51,53,55,57,59,61,63,65,67,69,71,73,75,77,79,81,83,85,87,89,91,93,95,97,99,101,103,105,107,109,111,113,115,117,119,121,123,125,-1,-1,-1,-1,-1,-1,-1,-1,-1,-1,-1,-1,-1,-1,-1,-1,-1,-1,-1,-1,-1,-1,-1,-1,-1,-1,-1,-1,-1,-1,-1,-1,-1,-1,-1,-1,-1,-1,-1,-1,-1,-1,-1,-1,-1,-1,-1,-1,-1,-1,-1,-1,-1,-1,-1,-1,-1,-1,-1,-1,-1,-1,-1,-1],"loss_changes":[3.8360027E4,5.0721797E3,4.7948125E3,9.221621E2,1.17504E3,9.99397E2,7.319336E2,1.9993848E2,1.8713965E2,2.2919165E2,5.004544E2,2.87872E2,2.9694336E2,1.8673096E2,2.4262988E2,3.9186035E1,2.6566895E1,8.869043E1,1.7056396E2,1.9387598E2,8.882205E1,8.2118805E1,1.3589359E2,6.824772E1,2.0402924E2,2.813291E2,1.0602881E2,1.1243164E2,4.4485596E1,9.34082E1,7.459766E1,5.3543457E1,1.5620605E1,1.5115234E1,5.962158E0,3.046289E1,1.7944824E1,2.4979126E1,8.252313E1,3.5170166E1,5.0820312E1,1.1115967E1,5.483371E1,4.9635254E1,4.6880737E1,1.1132166E2,9.621503E1,3.7302708E1,2.9528255E1,1.2808899E2,3.966635E1,3.3959656E2,1.24822266E2,3.6127686E1,3.39375E1,9.9392334E1,1.08666504E2,1.50780945E1,2.06344E1,7.257617E1,5.958667E1,6.7868164E1,3.8263184E1,0E0,0E0,0E0,0E0,0E0,0E0,0E0,0E0,0E0,0E0,0E0,0E0,0E0,0E0,0E0,0E0,0E0,0E0,0E0,0E0,0E0,0E0,0E0,0E0,0E0,0E0,0E0,0E0,0E0,0E0,0E0,0E0,0E0,0E0,0E0,0E0,0E0,0E0,0E0,0E0,0E0,0E0,0E0,0E0,0E0,0E0,0E0,0E0,0E0,0E0,0E0,0E0,0E0,0E0,0E0,0E0,0E0,0E0,0E0,0E0,0E0,0E0,0E0,0E0],"parents":[2147483647,0,0,1,1,2,2,3,3,4,4,5,5,6,6,7,7,8,8,9,9,10,10,11,11,12,12,13,13,14,14,15,15,16,16,17,17,18,18,19,19,20,20,21,21,22,22,23,23,24,24,25,25,26,26,27,27,28,28,29,29,30,30,31,31,32,32,33,33,34,34,35,35,36,36,37,37,38,38,39,39,40,40,41,41,42,42,43,43,44,44,45,45,46,46,47,47,48,48,49,49,50,50,51,51,52,52,53,53,54,54,55,55,56,56,57,57,58,58,59,59,60,60,61,61,62,62],"right_children":[2,4,6,8,10,12,14,16,18,20,22,24,26,28,30,32,34,36,38,40,42,44,46,48,50,52,54,56,58,60,62,64,66,68,70,72,74,76,78,80,82,84,86,88,90,92,94,96,98,100,102,104,106,108,110,112,114,116,118,120,122,124,126,-1,-1,-1,-1,-1,-1,-1,-1,-1,-1,-1,-1,-1,-1,-1,-1,-1,-1,-1,-1,-1,-1,-1,-1,-1,-1,-1,-1,-1,-1,-1,-1,-1,-1,-1,-1,-1,-1,-1,-1,-1,-1,-1,-1,-1,-1,-1,-1,-1,-1,-1,-1,-1,-1,-1,-1,-1,-1,-1,-1,-1,-1,-1,-1],"split_conditions":[2.31E1,1.9125E1,2.735E1,1.6975E1,2.1E1,2.38E1,2.865E1,1.6225E1,1.895E1,2.075E1,8.924266E2,1.335E1,2.7925001E1,9.7E1,3.02E1,8.952964E2,1.5025E1,1.655E1,8.921968E2,1.45E1,1.28E1,2.115E1,2.355E1,8.9602795E2,8.939251E2,8.9387213E2,1.5625E1,1.015E1,2.5625E1,1.195E1,3.1225E1,1.4224999E1,8.761959E1,1.705E1,1.795E1,8.965947E2,1.8075E1,1.88E1,1E-1,8.9712726E2,1.9975E1,2.185E1,8.961775E2,8.9131226E2,2.275E1,5.6762527E1,1E2,8.916988E2,7.2E1,2.55E1,7E1,1.48E1,9.85E0,8.9455066E2,8.912394E2,8.9345636E2,8.90849E2,4.48E-1,3.2333885E1,8.9426245E2,2.8E1,8.9136194E2,8.924492E2,-5.202544E-1,-3.774285E-1,-2.8500736E-1,-4.1703644E-1,-3.095318E-1,-2.714415E-1,-2.3224445E-1,-1.28623E-1,-2.5378758E-1,-1.7464297E-1,-2.3811948E-1,-1.8003035E-1,-2.73227E-1,-2.0567007E-1,-1.1840649E-1,-2.8913206E-1,-2.1397327E-1,1.5662864E-2,-1.4327946E-1,-9.932007E-2,-1.4844532E-1,-1.0064488E-1,-5.6752555E-2,4.6809354E-1,-2.1105315E-1,-9.427763E-2,-4.6945795E-2,-1.2076359E-1,-6.712141E-2,2.3360228E-2,9.840631E-2,-3.6665607E-2,3.0864697E-2,-5.084322E-2,3.9655197E-2,3.8267168E-1,5.426067E-2,1.7957741E-1,1.3022481E-1,3.7979734E-1,7.423654E-2,1.8253396E-1,1.6240913E-1,2.4490671E-1,2.3197474E-1,4.2654878E-1,3.4573627E-1,5.2044225E-1,1.4668052E-1,2.8883925E-1,2.2196059E-1,3.5548207E-1,1.1539671E-1,-7.344219E-2,1.5507153E-1,2.4080639E-1,3.0214897E-1,4.4673494E-1,4.9238256E-1,3.7369373E-1,3.610655E-1,4.6460426E-1,4.8319882E-1,5.9974116E-1],"split_indices":[0,0,7,7,7,7,0,0,7,0,9,11,0,3,7,9,4,4,9,4,4,0,7,2,2,9,11,11,0,11,0,0,8,0,0,9,0,0,6,9,0,0,2,9,7,1,3,2,10,0,10,11,11,2,2,9,9,5,8,2,3,9,2,0,0,0,0,0,0,0,0,0,0,0,0,0,0,0,0,0,0,0,0,0,0,0,0,0,0,0,0,0,0,0,0,0,0,0,0,0,0,0,0,0,0,0,0,0,0,0,0,0,0,0,0,0,0,0,0,0,0,0,0,0,0,0,0],"split_type":[0,0,0,0,0,0,0,0,0,0,0,0,0,0,0,0,0,0,0,0,0,0,0,0,0,0,0,0,0,0,0,0,0,0,0,0,0,0,0,0,0,0,0,0,0,0,0,0,0,0,0,0,0,0,0,0,0,0,0,0,0,0,0,0,0,0,0,0,0,0,0,0,0,0,0,0,0,0,0,0,0,0,0,0,0,0,0,0,0,0,0,0,0,0,0,0,0,0,0,0,0,0,0,0,0,0,0,0,0,0,0,0,0,0,0,0,0,0,0,0,0,0,0,0,0,0,0],"sum_hessian":[1.05168E5,6.1438E4,4.373E4,2.663E4,3.4808E4,2.7693E4,1.6037E4,9E3,1.763E4,1.981E4,1.4998E4,8.098E3,1.9595E4,7.322E3,8.715E3,4.376E3,4.624E3,1.1753E4,5.877E3,1.3474E4,6.336E3,5.191E3,9.807E3,2.953E3,5.145E3,1.7231E4,2.364E3,5.77E3,1.552E3,4.648E3,4.067E3,3.727E3,6.49E2,4.115E3,5.09E2,8.518E3,3.235E3,2.021E3,3.856E3,3.371E3,1.0103E4,1.947E3,4.389E3,1.316E3,3.875E3,6.483E3,3.324E3,2.862E3,9.1E1,4.818E3,3.27E2,1.0457E4,6.774E3,1.849E3,5.15E2,2.043E3,3.727E3,3.92E2,1.16E3,2.754E3,1.894E3,2.463E3,1.604E3,2.61E2,3.466E3,5.48E2,1.01E2,2.421E3,1.694E3,4.48E2,6.1E1,8.045E3,4.73E2,6E2,2.635E3,9.72E2,1.049E3,3.582E3,2.74E2,3.31E3,6.1E1,6.287E3,3.816E3,1.259E3,6.88E2,4.372E3,1.7E1,6.73E2,6.43E2,2.805E3,1.07E3,1.636E3,4.847E3,2.751E3,5.73E2,6.5E2,2.212E3,4.1E1,5E1,3.915E3,9.03E2,7.6E1,2.51E2,4.952E3,5.505E3,2.887E3,3.887E3,1.758E3,9.1E1,3.69E2,1.46E2,6.55E2,1.388E3,6.77E2,3.05E3,3.5E2,4.2E1,3.88E2,7.72E2,2.389E3,3.65E2,5.54E2,1.34E3,9.61E2,1.502E3,1.257E3,3.47E2],"tree_param":{"num_deleted":"0","num_feature":"14","num_nodes":"127","size_leaf_vector":"1"}},{"base_weights":[1.4464099E-4,-3.213739E-1,5.621238E-1,-5.1905257E-1,-8.3860174E-2,4.076225E-1,8.6783576E-1,-7.3920053E-1,-4.1921556E-1,-2.0303671E-1,6.358135E-2,2.662217E-1,5.46883E-1,7.6620984E-1,1.0820955E0,-7.8398013E-1,-5.145583E-1,-4.7694695E-1,-2.9530844E-1,-2.535412E-1,4.8220274E-3,-2.324744E-1,1.2975687E-1,1.22744314E-1,3.9500704E-1,7.175929E-1,4.5084396E-1,6.488868E-1,9.406029E-1,8.687073E-1,1.1647202E0,-8.985472E-1,-7.294136E-1,-4.3329608E-1,-1.1131189E0,-5.859169E-1,-4.226917E-1,-4.7664613E-1,-1.7105222E-1,-1.7712489E-1,-3.4552586E-1,-7.442119E-2,4.955299E-1,-5.014653E-1,-1.4626226E-1,1.552374E-1,-2.1095355E-1,9.587501E-2,6.5252036E-1,2.4566369E-1,5.9682685E-1,4.416056E-1,8.1241024E-1,3.0864397E-1,5.5789167E-1,5.5088437E-1,9.197656E-1,8.1348604E-1,1.0690056E0,8.062176E-1,1.2502816E0,1.0900663E0,1.3582764E0,-2.874668E-1,-1.90885E-1,-2.3220362E-1,-1.9465744E-1,-1.20688416E-1,-3.2358712E-1,-3.5395122E-1,-1.6635664E-1,-1.8798743E-1,-1.509258E-1,-1.4420387E-1,-1.0640298E-1,-1.2688974E-1,-1.8981272E-1,-4.0652245E-2,-1.874971E-1,-6.4510964E-2,-1.1194203E-2,-1.0817682E-1,1.816991E-1,-4.9903203E-2,1.5065491E-2,8.7366104E-2,2.391241E-1,-1.839684E-1,2.896762E-3,7.025041E-3,-8.196838E-2,-7.0534456E-3,6.056568E-2,-9.46284E-2,9.75894E-3,-1.4949915E-2,5.987919E-2,2.549843E-1,1.1758193E-1,5.5148974E-2,1.3530962E-1,1.1231336E-1,2.720987E-1,7.660176E-2,1.5828402E-1,1.22398175E-1,2.5906768E-1,2.4208821E-2,1.15655616E-1,1.04775496E-1,1.847094E-1,1.2067049E-1,1.9318292E-1,3.464995E-1,2.4926229E-1,2.1015404E-1,3.0019763E-1,3.3036363E-1,2.1758649E-1,1.6752835E-1,2.7579543E-1,4.182337E-1,2.9749182E-1,2.8395662E-1,3.5458982E-1,3.834503E-1,4.7681296E-1],"categories":[],"categories_nodes":[],"categories_segments":[],"categories_sizes":[],"default_left":[0,0,0,0,0,0,0,0,0,0,0,0,0,0,0,0,0,0,0,0,0,0,0,0,0,0,0,0,0,0,0,0,0,0,0,0,0,0,0,0,0,0,0,0,0,0,0,0,0,0,0,0,0,0,0,0,0,0,0,0,0,0,0,0,0,0,0,0,0,0,0,0,0,0,0,0,0,0,0,0,0,0,0,0,0,0,0,0,0,0,0,0,0,0,0,0,0,0,0,0,0,0,0,0,0,0,0,0,0,0,0,0,0,0,0,0,0,0,0,0,0,0,0,0,0,0,0],"id":6,"left_children":[1,3,5,7,9,11,13,15,17,19,21,23,25,27,29,31,33,35,37,39,41,43,45,47,49,51,53,55,57,59,61,63,65,67,69,71,73,75,77,79,81,83,85,87,89,91,93,95,97,99,101,103,105,107,109,111,113,115,117,119,121,123,125,-1,-1,-1,-1,-1,-1,-1,-1,-1,-1,-1,-1,-1,-1,-1,-1,-1,-1,-1,-1,-1,-1,-1,-1,-1,-1,-1,-1,-1,-1,-1,-1,-1,-1,-1,-1,-1,-1,-1,-1,-1,-1,-1,-1,-1,-1,-1,-1,-1,-1,-1,-1,-1,-1,-1,-1,-1,-1,-1,-1,-1,-1,-1,-1],"loss_changes":[1.9002822E4,3.1408633E3,1.8073906E3,8.021406E2,5.339778E2,5.0053174E2,2.7892676E2,1.1417334E2,1.7955762E2,1.7641681E2,2.6616302E2,2.3310431E2,2.0967773E2,1.777627E2,7.1822754E1,5.870215E1,9.173984E1,1.0105786E2,1.7988428E2,9.497266E1,1.2781387E2,5.748494E1,9.642328E1,8.491868E1,2.0025708E2,1.2027734E2,1.2464966E2,1.3793457E2,5.6322998E1,2.6580017E1,4.1507324E1,4.7266113E1,2.2623535E1,3.2996155E1,7.7684937E0,1.8880737E1,4.4961426E1,2.6934204E1,7.6411865E1,3.914647E1,8.810797E1,3.243226E1,2.792347E1,3.4394714E1,4.0529568E1,8.614783E1,1.9673668E1,8.589812E1,1.4483246E1,4.8464233E1,1.9471423E2,1.878534E1,7.059863E1,6.1721466E1,5.6192993E1,5.274939E1,2.7980103E1,3.6620605E1,1.846289E1,2.7427673E1,4.606827E0,2.7269531E1,1.3223389E1,0E0,0E0,0E0,0E0,0E0,0E0,0E0,0E0,0E0,0E0,0E0,0E0,0E0,0E0,0E0,0E0,0E0,0E0,0E0,0E0,0E0,0E0,0E0,0E0,0E0,0E0,0E0,0E0,0E0,0E0,0E0,0E0,0E0,0E0,0E0,0E0,0E0,0E0,0E0,0E0,0E0,0E0,0E0,0E0,0E0,0E0,0E0,0E0,0E0,0E0,0E0,0E0,0E0,0E0,0E0,0E0,0E0,0E0,0E0,0E0,0E0,0E0,0E0,0E0],"parents":[2147483647,0,0,1,1,2,2,3,3,4,4,5,5,6,6,7,7,8,8,9,9,10,10,11,11,12,12,13,13,14,14,15,15,16,16,17,17,18,18,19,19,20,20,21,21,22,22,23,23,24,24,25,25,26,26,27,27,28,28,29,29,30,30,31,31,32,32,33,33,34,34,35,35,36,36,37,37,38,38,39,39,40,40,41,41,42,42,43,43,44,44,45,45,46,46,47,47,48,48,49,49,50,50,51,51,52,52,53,53,54,54,55,55,56,56,57,57,58,58,59,59,60,60,61,61,62,62],"right_children":[2,4,6,8,10,12,14,16,18,20,22,24,26,28,30,32,34,36,38,40,42,44,46,48,50,52,54,56,58,60,62,64,66,68,70,72,74,76,78,80,82,84,86,88,90,92,94,96,98,100,102,104,106,108,110,112,114,116,118,120,122,124,126,-1,-1,-1,-1,-1,-1,-1,-1,-1,-1,-1,-1,-1,-1,-1,-1,-1,-1,-1,-1,-1,-1,-1,-1,-1,-1,-1,-1,-1,-1,-1,-1,-1,-1,-1,-1,-1,-1,-1,-1,-1,-1,-1,-1,-1,-1,-1,-1,-1,-1,-1,-1,-1,-1,-1,-1,-1,-1,-1,-1,-1,-1,-1,-1],"split_conditions":[2.3925001E1,1.9975E1,2.8E1,1.74E1,2.19E1,2.575E1,3.035E1,1.7725E1,1.95E1,3.94E-1,8.91337E2,6.1E1,4.1E1,8.929672E2,8.902862E2,1.57E1,1.61E1,1.405E1,8.924017E2,8.9236005E2,8.9326605E2,2.2025002E1,2E-1,8.961775E2,8.9229297E2,9.025E0,2.61E1,2.7E-1,1.005E1,3.26E1,3.1725E1,1.64E1,1.3575E1,1.995E1,8.9441974E2,1.8925001E1,1.89E1,1E-1,2E-1,2.215E1,8.967939E2,2.125E1,2.125E1,2.55E1,2.285E1,1.13E1,2.5625E1,1.155E1,4.7E1,4.45E-1,1.4275E1,2.625E1,8.910121E2,1.0325E1,8.912131E2,8.906567E2,3E1,8.9455066E2,1E-1,9.5E0,5.2E1,9.375E0,3.26E1,-2.874668E-1,-1.90885E-1,-2.3220362E-1,-1.9465744E-1,-1.20688416E-1,-3.2358712E-1,-3.5395122E-1,-1.6635664E-1,-1.8798743E-1,-1.509258E-1,-1.4420387E-1,-1.0640298E-1,-1.2688974E-1,-1.8981272E-1,-4.0652245E-2,-1.874971E-1,-6.4510964E-2,-1.1194203E-2,-1.0817682E-1,1.816991E-1,-4.9903203E-2,1.5065491E-2,8.7366104E-2,2.391241E-1,-1.839684E-1,2.896762E-3,7.025041E-3,-8.196838E-2,-7.0534456E-3,6.056568E-2,-9.46284E-2,9.75894E-3,-1.4949915E-2,5.987919E-2,2.549843E-1,1.1758193E-1,5.5148974E-2,1.3530962E-1,1.1231336E-1,2.720987E-1,7.660176E-2,1.5828402E-1,1.22398175E-1,2.5906768E-1,2.4208821E-2,1.15655616E-1,1.04775496E-1,1.847094E-1,1.2067049E-1,1.9318292E-1,3.464995E-1,2.4926229E-1,2.1015404E-1,3.0019763E-1,3.3036363E-1,2.1758649E-1,1.6752835E-1,2.7579543E-1,4.182337E-1,2.9749182E-1,2.8395662E-1,3.5458982E-1,3.834503E-1,4.7681296E-1],"split_indices":[0,0,0,0,7,7,0,7,7,12,9,10,3,2,2,0,11,4,9,2,9,0,6,2,2,4,0,12,11,0,0,7,4,7,9,0,0,6,6,0,2,0,0,7,7,4,7,11,3,12,11,0,2,11,2,2,3,2,6,11,3,11,7,0,0,0,0,0,0,0,0,0,0,0,0,0,0,0,0,0,0,0,0,0,0,0,0,0,0,0,0,0,0,0,0,0,0,0,0,0,0,0,0,0,0,0,0,0,0,0,0,0,0,0,0,0,0,0,0,0,0,0,0,0,0,0,0],"split_type":[0,0,0,0,0,0,0,0,0,0,0,0,0,0,0,0,0,0,0,0,0,0,0,0,0,0,0,0,0,0,0,0,0,0,0,0,0,0,0,0,0,0,0,0,0,0,0,0,0,0,0,0,0,0,0,0,0,0,0,0,0,0,0,0,0,0,0,0,0,0,0,0,0,0,0,0,0,0,0,0,0,0,0,0,0,0,0,0,0,0,0,0,0,0,0,0,0,0,0,0,0,0,0,0,0,0,0,0,0,0,0,0,0,0,0,0,0,0,0,0,0,0,0,0,0,0,0],"sum_hessian":[1.05168E5,6.6896E4,3.8272E4,3.6509E4,3.0387E4,2.5425E4,1.2847E4,1.1389E4,2.512E4,1.6804E4,1.3583E4,1.2617E4,1.2808E4,8.717E3,4.13E3,9.494E3,1.895E3,1.7134E4,7.986E3,1.3519E4,3.285E3,2.481E3,1.1102E4,5.969E3,6.648E3,4.609E3,8.199E3,5.214E3,3.503E3,1.156E3,2.974E3,3.058E3,6.436E3,1.67E3,2.25E2,5.692E3,1.1442E4,3.246E3,4.74E3,7.386E3,6.133E3,2.829E3,4.56E2,6.01E2,1.88E3,1.033E4,7.72E2,5.682E3,2.87E2,3.822E3,2.826E3,1.18E3,3.429E3,3.523E3,4.676E3,3.831E3,1.383E3,1.764E3,1.739E3,9.96E2,1.6E2,2.151E3,8.23E2,2.489E3,5.69E2,4.137E3,2.299E3,1.595E3,7.5E1,2E2,2.5E1,3.812E3,1.88E3,6.173E3,5.269E3,2.418E3,8.28E2,4.397E3,3.43E2,5.81E3,1.576E3,6.038E3,9.5E1,1.628E3,1.201E3,2.73E2,1.83E2,4.93E2,1.08E2,8.05E2,1.075E3,2.138E3,8.192E3,5.4E2,2.32E2,2.363E3,3.319E3,1.62E2,1.25E2,2.939E3,8.83E2,1.647E3,1.179E3,3.74E2,8.06E2,3.86E2,3.043E3,8.89E2,2.634E3,1.016E3,3.66E3,1.477E3,2.354E3,3.76E2,1.007E3,1.103E3,6.61E2,1.588E3,1.51E2,3.14E2,6.82E2,1E2,6E1,8.44E2,1.307E3,6.16E2,2.07E2],"tree_param":{"num_deleted":"0","num_feature":"14","num_nodes":"127","size_leaf_vector":"1"}},{"base_weights":[1.3608707E-4,-2.686184E-1,3.3257076E-1,-4.4010428E-1,-1.6035107E-1,1.5077998E-1,5.150447E-1,-5.417618E-1,-3.7200835E-1,-2.3912728E-1,-7.393432E-2,1.03867866E-1,3.6224416E-1,4.4329533E-1,7.3412174E-1,-5.960771E-1,-4.0663457E-1,-3.918623E-1,-2.116048E-1,-3.4363025E-1,-1.9135937E-1,-1.6468032E-1,5.3323112E-2,-8.041747E-2,1.7311376E-1,2.441278E-1,4.5597062E-1,3.5213995E-1,5.5583215E-1,5.900418E-1,8.1462413E-1,-8.201111E-1,-5.687691E-1,-8.116415E-1,-3.7982216E-1,-4.6018004E-1,-3.5722533E-1,-4.9813735E-1,-1.10344596E-1,-3.8136497E-1,-2.2184718E-1,-2.2702207E-1,-1.1537571E-1,-4.5718375E-1,-1.392648E-1,1.574393E-2,1.7615992E-1,-1.4845625E-1,8.475171E-2,4.032689E-2,3.0701774E-1,1.16068535E-1,3.3252227E-1,4.898622E-1,4.82673E-2,2.813733E-1,5.608064E-1,4.5002815E-1,7.385255E-1,5.155591E-1,7.8337085E-1,7.1035963E-1,8.9852285E-1,-3.2208556E-1,-2.3123294E-1,-1.6585715E-1,-2.5456887E-1,-3.53554E-1,-1.8722624E-1,-1.0644193E-1,-2.1641184E-1,-1.4138879E-1,-6.1931655E-2,-1.0316538E-1,-1.6020404E-1,-1.6602819E-1,-3.1298038E-2,-4.669963E-3,-1.2267784E-1,-9.960348E-2,-1.3337749E-1,2.24767E-3,-7.331619E-2,-7.368209E-2,-3.9427415E-2,-3.7261248E-2,1.9406657E-1,-2.6787096E-1,-9.970668E-2,-5.985805E-2,-1.3356986E-2,1.3980848E-2,-5.277421E-2,-5.3336706E-2,8.643118E-2,1.455039E-2,-6.2113974E-2,5.1247064E-2,-7.6729263E-4,-5.488645E-3,3.729158E-2,6.180987E-2,1.4056857E-1,-8.9491926E-2,5.443594E-2,1.4317377E-1,5.7611823E-2,1.238795E-1,1.9803803E-1,-2.345272E-2,9.729053E-2,5.8608897E-2,1.1711887E-1,8.485833E-2,1.9579631E-1,9.53174E-2,1.6797696E-1,2.3899E-1,1.342986E-1,1.307762E-1,2.3478256E-1,5.004953E-1,2.2555032E-1,1.8053912E-1,2.654777E-1,3.238254E-1,2.523255E-1],"categories":[],"categories_nodes":[],"categories_segments":[],"categories_sizes":[],"default_left":[0,0,0,0,0,0,0,0,0,0,0,0,0,0,0,0,0,0,0,0,0,0,0,0,0,0,0,0,0,0,0,0,0,0,0,0,0,0,0,0,0,0,0,0,0,0,0,0,0,0,0,0,0,0,0,0,0,0,0,0,0,0,0,0,0,0,0,0,0,0,0,0,0,0,0,0,0,0,0,0,0,0,0,0,0,0,0,0,0,0,0,0,0,0,0,0,0,0,0,0,0,0,0,0,0,0,0,0,0,0,0,0,0,0,0,0,0,0,0,0,0,0,0,0,0,0,0],"id":7,"left_children":[1,3,5,7,9,11,13,15,17,19,21,23,25,27,29,31,33,35,37,39,41,43,45,47,49,51,53,55,57,59,61,63,65,67,69,71,73,75,77,79,81,83,85,87,89,91,93,95,97,99,101,103,105,107,109,111,113,115,117,119,121,123,125,-1,-1,-1,-1,-1,-1,-1,-1,-1,-1,-1,-1,-1,-1,-1,-1,-1,-1,-1,-1,-1,-1,-1,-1,-1,-1,-1,-1,-1,-1,-1,-1,-1,-1,-1,-1,-1,-1,-1,-1,-1,-1,-1,-1,-1,-1,-1,-1,-1,-1,-1,-1,-1,-1,-1,-1,-1,-1,-1,-1,-1,-1,-1,-1],"loss_changes":[9.396236E3,1.0796533E3,1.5595078E3,1.555957E2,2.4267273E2,2.3361359E2,3.6848145E2,6.600391E1,4.2849365E1,9.3027954E1,1.9634964E2,2.4602052E2,4.7226746E1,1.8114087E2,6.664136E1,3.8908447E1,2.7827911E1,2.8219604E1,4.3089363E1,2.679419E1,3.4661774E1,7.372003E1,3.267003E1,5.9191414E1,2.4914844E2,2.1400978E1,3.290396E1,1.4409741E2,1.5254614E2,2.9518616E1,3.1815674E1,7.889618E0,2.5085693E1,1.0273834E1,2.0523407E1,1.12751465E1,1.8599304E1,8.390488E0,3.1122507E1,1.37821045E1,7.166519E0,1.5444275E1,2.761116E1,4.2834564E1,5.2134293E1,3.2069897E1,6.574527E1,4.305352E1,1.1550802E1,3.46455E1,1.1372284E2,2.1051773E1,2.2679268E1,2.854419E1,6.4474373E0,6.834845E1,6.2947876E1,7.2679565E1,4.8640747E1,3.1623749E1,1.482077E1,3.0907654E1,2.0412964E1,0E0,0E0,0E0,0E0,0E0,0E0,0E0,0E0,0E0,0E0,0E0,0E0,0E0,0E0,0E0,0E0,0E0,0E0,0E0,0E0,0E0,0E0,0E0,0E0,0E0,0E0,0E0,0E0,0E0,0E0,0E0,0E0,0E0,0E0,0E0,0E0,0E0,0E0,0E0,0E0,0E0,0E0,0E0,0E0,0E0,0E0,0E0,0E0,0E0,0E0,0E0,0E0,0E0,0E0,0E0,0E0,0E0,0E0,0E0,0E0,0E0,0E0,0E0,0E0],"parents":[2147483647,0,0,1,1,2,2,3,3,4,4,5,5,6,6,7,7,8,8,9,9,10,10,11,11,12,12,13,13,14,14,15,15,16,16,17,17,18,18,19,19,20,20,21,21,22,22,23,23,24,24,25,25,26,26,27,27,28,28,29,29,30,30,31,31,32,32,33,33,34,34,35,35,36,36,37,37,38,38,39,39,40,40,41,41,42,42,43,43,44,44,45,45,46,46,47,47,48,48,49,49,50,50,51,51,52,52,53,53,54,54,55,55,56,56,57,57,58,58,59,59,60,60,61,61,62,62],"right_children":[2,4,6,8,10,12,14,16,18,20,22,24,26,28,30,32,34,36,38,40,42,44,46,48,50,52,54,56,58,60,62,64,66,68,70,72,74,76,78,80,82,84,86,88,90,92,94,96,98,100,102,104,106,108,110,112,114,116,118,120,122,124,126,-1,-1,-1,-1,-1,-1,-1,-1,-1,-1,-1,-1,-1,-1,-1,-1,-1,-1,-1,-1,-1,-1,-1,-1,-1,-1,-1,-1,-1,-1,-1,-1,-1,-1,-1,-1,-1,-1,-1,-1,-1,-1,-1,-1,-1,-1,-1,-1,-1,-1,-1,-1,-1,-1,-1,-1,-1,-1,-1,-1,-1,-1,-1,-1],"split_conditions":[2.26E1,1.8775002E1,2.6175001E1,1.6975E1,2.0375E1,8.952964E2,2.9775002E1,8.947237E2,8.956491E2,2.1E1,8.9363153E2,1.215E1,2.41E1,8.931762E2,8.9073895E2,1.49E1,1.46E1,1E1,1.86E1,2.065E1,2.02E1,1.2724999E1,2.19E1,2.545E1,8.919299E2,1.095E1,1E2,3.23E-1,1.18E1,3.1725E1,9.625E0,8.3E0,1.5575E1,1.4224999E1,8.761959E1,1.97E1,2E-1,7.75435E1,2.0775002E1,1.91E1,1.91E1,1E-1,5.06E-1,2.115E1,8.9213226E2,9.9E1,2.225E1,8.919725E2,2.5E1,2.4625E1,2.47E1,2.28E1,4.7E1,1.18E1,1.135E1,2.825E1,8.8960144E2,8.9462384E2,1E-1,2.37E-1,2.845E1,3.145E1,1.9E1,-3.2208556E-1,-2.3123294E-1,-1.6585715E-1,-2.5456887E-1,-3.53554E-1,-1.8722624E-1,-1.0644193E-1,-2.1641184E-1,-1.4138879E-1,-6.1931655E-2,-1.0316538E-1,-1.6020404E-1,-1.6602819E-1,-3.1298038E-2,-4.669963E-3,-1.2267784E-1,-9.960348E-2,-1.3337749E-1,2.24767E-3,-7.331619E-2,-7.368209E-2,-3.9427415E-2,-3.7261248E-2,1.9406657E-1,-2.6787096E-1,-9.970668E-2,-5.985805E-2,-1.3356986E-2,1.3980848E-2,-5.277421E-2,-5.3336706E-2,8.643118E-2,1.455039E-2,-6.2113974E-2,5.1247064E-2,-7.6729263E-4,-5.488645E-3,3.729158E-2,6.180987E-2,1.4056857E-1,-8.9491926E-2,5.443594E-2,1.4317377E-1,5.7611823E-2,1.238795E-1,1.9803803E-1,-2.345272E-2,9.729053E-2,5.8608897E-2,1.1711887E-1,8.485833E-2,1.9579631E-1,9.53174E-2,1.6797696E-1,2.3899E-1,1.342986E-1,1.307762E-1,2.3478256E-1,5.004953E-1,2.2555032E-1,1.8053912E-1,2.654777E-1,3.238254E-1,2.523255E-1],"split_indices":[0,0,0,0,7,9,0,9,9,3,9,4,0,2,2,0,7,3,7,0,0,11,0,0,2,4,3,12,4,0,11,4,11,0,8,7,6,1,7,7,7,13,12,0,9,3,7,2,7,0,0,7,3,4,11,0,2,2,6,5,7,7,3,0,0,0,0,0,0,0,0,0,0,0,0,0,0,0,0,0,0,0,0,0,0,0,0,0,0,0,0,0,0,0,0,0,0,0,0,0,0,0,0,0,0,0,0,0,0,0,0,0,0,0,0,0,0,0,0,0,0,0,0,0,0,0,0],"split_type":[0,0,0,0,0,0,0,0,0,0,0,0,0,0,0,0,0,0,0,0,0,0,0,0,0,0,0,0,0,0,0,0,0,0,0,0,0,0,0,0,0,0,0,0,0,0,0,0,0,0,0,0,0,0,0,0,0,0,0,0,0,0,0,0,0,0,0,0,0,0,0,0,0,0,0,0,0,0,0,0,0,0,0,0,0,0,0,0,0,0,0,0,0,0,0,0,0,0,0,0,0,0,0,0,0,0,0,0,0,0,0,0,0,0,0,0,0,0,0,0,0,0,0,0,0,0,0],"sum_hessian":[1.05168E5,5.8154E4,4.7014E4,2.2505E4,3.5649E4,2.3552E4,2.3462E4,9.025E3,1.348E4,1.8648E4,1.7001E4,1.9277E4,4.275E3,1.7676E4,5.786E3,6.435E3,2.59E3,1.1994E4,1.486E3,5.848E3,1.28E4,9.924E3,7.077E3,5.265E3,1.4012E4,1.893E3,2.382E3,9.768E3,7.908E3,2.077E3,3.709E3,6.96E2,5.739E3,1.59E2,2.431E3,4.031E3,7.963E3,3.87E2,1.099E3,4.463E3,1.385E3,8.71E3,4.09E3,7.92E2,9.132E3,5.42E3,1.657E3,3.729E3,1.536E3,7.036E3,6.976E3,7.74E2,1.119E3,2.199E3,1.83E2,7.296E3,2.472E3,5.01E3,2.898E3,1.502E3,5.75E2,1.658E3,2.051E3,1.1E2,5.86E2,5.433E3,3.06E2,5.2E1,1.07E2,2.267E3,1.64E2,3.861E3,1.7E2,7.407E3,5.56E2,3.39E2,4.8E1,8.35E2,2.64E2,2.51E3,1.953E3,1.24E2,1.261E3,7.291E3,1.419E3,4.044E3,4.6E1,1.75E2,6.17E2,5.581E3,3.551E3,4.669E3,7.51E2,3.98E2,1.259E3,8.55E2,2.874E3,7.73E2,7.63E2,4.144E3,2.892E3,4.294E3,2.682E3,1.05E2,6.69E2,5.5E2,5.69E2,1.517E3,6.82E2,1.26E2,5.7E1,4.08E3,3.216E3,6.15E2,1.857E3,2.275E3,2.735E3,2.414E3,4.84E2,1.159E3,3.43E2,1.8E1,5.57E2,1.025E3,6.33E2,4.9E2,1.561E3],"tree_param":{"num_deleted":"0","num_feature":"14","num_nodes":"127","size_leaf_vector":"1"}},{"base_weights":[1.0166991E-4,-1.5547852E-1,2.8424007E-1,-2.8518027E-1,-6.153106E-2,2.1330786E-1,4.5799965E-1,-3.4812447E-1,-2.1237281E-1,-1.3552079E-1,7.0503512E-3,1.585319E-1,3.2541198E-1,2.9819766E-1,4.960764E-1,-4.5830214E-1,-3.1886676E-1,-2.2702773E-1,-5.633928E-2,-1.6467245E-1,-5.193772E-2,-2.2153568E-2,1.6925569E-1,1.0321892E-2,2.2419739E-1,1.8150108E-1,4.2016196E-1,3.1727752E-1,-3.4881017E-1,4.621308E-1,6.512211E-1,-4.4548675E-1,-1.0715153E0,-3.5752034E-1,-2.2359595E-1,-2.8792545E-1,-2.0097274E-1,-3.7347305E-1,4.612242E-2,-2.5700793E-1,-1.058347E-1,4.2726707E-2,-2.3362869E-1,-2.8064317E-1,1.3843123E-2,2.106057E-1,-1.2648116E-2,-1.1563401E-2,3.9432156E-1,1.0288454E-1,3.1876898E-1,6.6592954E-2,2.8659958E-1,6.623357E-1,3.6789256E-1,2.5368384E-1,4.6796808E-1,-1.466668E0,-1.9744322E-1,4.1468182E-1,6.195175E-1,6.286987E-1,1.108264E0,-2.0985751E-1,-1.2494202E-1,-2.1077421E-1,-3.425374E-1,-1.05279826E-1,-2.1648099E-1,-2.7419163E-2,-8.741178E-2,-6.982675E-2,-1.4369921E-1,-3.5072632E-2,-7.576514E-2,-1.2383788E-1,7.634549E-2,3.4817174E-2,-1.1476119E-1,-7.793017E-2,2.5106397E-1,-3.374444E-2,1.04614034E-1,-5.0112237E-3,4.143813E-2,-7.114483E-2,8.5164416E-1,-6.650843E-2,-1.3427474E-1,-4.044065E-3,4.6538994E-2,-2.9882116E-2,7.118159E-2,9.881252E-2,-3.284288E-2,-2.2254359E-2,2.4416713E-2,8.494282E-2,2.4430399E-1,-3.3307492E-3,5.486198E-2,5.6883905E-2,1.2457845E-1,-1.4159201E-2,7.196322E-2,1.5914784E-1,6.561461E-2,1.8033005E-2,2.0832951E-1,8.286713E-2,1.4187531E-1,5.365294E-2,1.598976E-1,3.9660355E-1,1.3311805E-1,-5.596938E-1,1.3908005E-1,-2.23051E-1,3.6069702E-2,8.468695E-2,1.4441957E-1,2.2217642E-1,1.684833E-1,1.6981749E-1,2.3514722E-1,3.5249528E-1,-5.4433084E-1],"categories":[],"categories_nodes":[],"categories_segments":[],"categories_sizes":[],"default_left":[0,0,0,0,0,0,0,0,0,0,0,0,0,0,0,0,0,0,0,0,0,0,0,0,0,0,0,0,0,0,0,0,0,0,0,0,0,0,0,0,0,0,0,0,0,0,0,0,0,0,0,0,0,0,0,0,0,0,0,0,0,0,0,0,0,0,0,0,0,0,0,0,0,0,0,0,0,0,0,0,0,0,0,0,0,0,0,0,0,0,0,0,0,0,0,0,0,0,0,0,0,0,0,0,0,0,0,0,0,0,0,0,0,0,0,0,0,0,0,0,0,0,0,0,0,0,0],"id":8,"left_children":[1,3,5,7,9,11,13,15,17,19,21,23,25,27,29,31,33,35,37,39,41,43,45,47,49,51,53,55,57,59,61,63,65,67,69,71,73,75,77,79,81,83,85,87,89,91,93,95,97,99,101,103,105,107,109,111,113,115,117,119,121,123,125,-1,-1,-1,-1,-1,-1,-1,-1,-1,-1,-1,-1,-1,-1,-1,-1,-1,-1,-1,-1,-1,-1,-1,-1,-1,-1,-1,-1,-1,-1,-1,-1,-1,-1,-1,-1,-1,-1,-1,-1,-1,-1,-1,-1,-1,-1,-1,-1,-1,-1,-1,-1,-1,-1,-1,-1,-1,-1,-1,-1,-1,-1,-1,-1],"loss_changes":[4.6491772E3,8.2807336E2,4.5853345E2,1.3075146E2,1.9999509E2,1.6222021E2,6.548218E1,4.9203125E1,3.0260315E1,4.6186676E1,9.689973E1,1.7278464E2,1.18184875E2,2.5763214E1,4.556494E1,2.4748657E1,4.4479004E1,1.9144226E1,3.699547E1,7.6336395E1,8.435718E1,1.6130208E2,2.3477966E1,4.582287E1,1.4111633E2,4.158503E1,6.594647E1,1.922931E1,9.86282E0,5.3130615E1,1.5371582E1,2.2896301E1,8.830719E-1,2.0387573E1,3.1288528E1,3.8090424E1,3.6733948E1,6.9692154E0,2.585566E1,1.6727753E1,2.598288E1,1.8287155E1,1.8846039E1,2.0753433E1,5.874623E1,2.1059868E1,1.9211073E1,3.0033876E1,1.3498608E1,4.915543E1,8.6075134E1,3.2487007E1,2.9669128E1,1.7876282E1,4.129663E1,2.9629623E1,1.1793854E1,6.2558546E0,9.45677E0,4.8408936E1,1.1179871E1,1.4034851E1,1.6172165E1,0E0,0E0,0E0,0E0,0E0,0E0,0E0,0E0,0E0,0E0,0E0,0E0,0E0,0E0,0E0,0E0,0E0,0E0,0E0,0E0,0E0,0E0,0E0,0E0,0E0,0E0,0E0,0E0,0E0,0E0,0E0,0E0,0E0,0E0,0E0,0E0,0E0,0E0,0E0,0E0,0E0,0E0,0E0,0E0,0E0,0E0,0E0,0E0,0E0,0E0,0E0,0E0,0E0,0E0,0E0,0E0,0E0,0E0,0E0,0E0,0E0,0E0,0E0,0E0],"parents":[2147483647,0,0,1,1,2,2,3,3,4,4,5,5,6,6,7,7,8,8,9,9,10,10,11,11,12,12,13,13,14,14,15,15,16,16,17,17,18,18,19,19,20,20,21,21,22,22,23,23,24,24,25,25,26,26,27,27,28,28,29,29,30,30,31,31,32,32,33,33,34,34,35,35,36,36,37,37,38,38,39,39,40,40,41,41,42,42,43,43,44,44,45,45,46,46,47,47,48,48,49,49,50,50,51,51,52,52,53,53,54,54,55,55,56,56,57,57,58,58,59,59,60,60,61,61,62,62],"right_children":[2,4,6,8,10,12,14,16,18,20,22,24,26,28,30,32,34,36,38,40,42,44,46,48,50,52,54,56,58,60,62,64,66,68,70,72,74,76,78,80,82,84,86,88,90,92,94,96,98,100,102,104,106,108,110,112,114,116,118,120,122,124,126,-1,-1,-1,-1,-1,-1,-1,-1,-1,-1,-1,-1,-1,-1,-1,-1,-1,-1,-1,-1,-1,-1,-1,-1,-1,-1,-1,-1,-1,-1,-1,-1,-1,-1,-1,-1,-1,-1,-1,-1,-1,-1,-1,-1,-1,-1,-1,-1,-1,-1,-1,-1,-1,-1,-1,-1,-1,-1,-1,-1,-1,-1,-1,-1],"split_conditions":[2.41E1,1.93E1,2.845E1,1.8E1,2.115E1,8.9384564E2,8.90003E2,1.57E1,8.958288E2,2.105E1,8.955911E2,1.215E1,9.625E0,2E-1,3.1225E1,1.4925E1,8.9435754E2,8.9116187E2,1.935E1,1.625E1,9.6E1,1.105E1,2.54E1,2.9525002E1,8.910378E2,8.9549194E2,1E1,3.1E1,2.65E1,8.9384564E2,3.730861E1,8.4E0,1.615E1,1.775E1,8.943249E2,1.93E1,8.921337E2,2.14E-1,2.1625E1,8.9798755E2,8.943897E2,1.595E1,3.05E1,2.275E1,8.9409015E2,2.175E1,8.9602795E2,2.7025002E1,3.1225E1,2.575E1,2.57E1,2.67E1,1E0,2.4625E1,2.58E1,2.91E-1,2.735E1,4.6212368E1,1.19E1,9.5E0,1.7E1,8.916291E2,1E-1,-2.0985751E-1,-1.2494202E-1,-2.1077421E-1,-3.425374E-1,-1.05279826E-1,-2.1648099E-1,-2.7419163E-2,-8.741178E-2,-6.982675E-2,-1.4369921E-1,-3.5072632E-2,-7.576514E-2,-1.2383788E-1,7.634549E-2,3.4817174E-2,-1.1476119E-1,-7.793017E-2,2.5106397E-1,-3.374444E-2,1.04614034E-1,-5.0112237E-3,4.143813E-2,-7.114483E-2,8.5164416E-1,-6.650843E-2,-1.3427474E-1,-4.044065E-3,4.6538994E-2,-2.9882116E-2,7.118159E-2,9.881252E-2,-3.284288E-2,-2.2254359E-2,2.4416713E-2,8.494282E-2,2.4430399E-1,-3.3307492E-3,5.486198E-2,5.6883905E-2,1.2457845E-1,-1.4159201E-2,7.196322E-2,1.5914784E-1,6.561461E-2,1.8033005E-2,2.0832951E-1,8.286713E-2,1.4187531E-1,5.365294E-2,1.598976E-1,3.9660355E-1,1.3311805E-1,-5.596938E-1,1.3908005E-1,-2.23051E-1,3.6069702E-2,8.468695E-2,1.4441957E-1,2.2217642E-1,1.684833E-1,1.6981749E-1,2.3514722E-1,3.5249528E-1,-5.4433084E-1],"split_indices":[0,0,0,0,0,9,2,0,9,7,9,11,4,6,0,11,9,9,7,4,3,11,7,7,2,2,3,0,7,2,8,4,7,11,2,7,2,5,7,2,9,11,7,7,9,7,2,0,7,0,0,0,3,7,0,12,7,1,11,11,3,9,6,0,0,0,0,0,0,0,0,0,0,0,0,0,0,0,0,0,0,0,0,0,0,0,0,0,0,0,0,0,0,0,0,0,0,0,0,0,0,0,0,0,0,0,0,0,0,0,0,0,0,0,0,0,0,0,0,0,0,0,0,0,0,0,0],"split_type":[0,0,0,0,0,0,0,0,0,0,0,0,0,0,0,0,0,0,0,0,0,0,0,0,0,0,0,0,0,0,0,0,0,0,0,0,0,0,0,0,0,0,0,0,0,0,0,0,0,0,0,0,0,0,0,0,0,0,0,0,0,0,0,0,0,0,0,0,0,0,0,0,0,0,0,0,0,0,0,0,0,0,0,0,0,0,0,0,0,0,0,0,0,0,0,0,0,0,0,0,0,0,0,0,0,0,0,0,0,0,0,0,0,0,0,0,0,0,0,0,0,0,0,0,0,0,0],"sum_hessian":[1.05168E5,6.7958E4,3.721E4,2.8546E4,3.9412E4,2.6425E4,1.0785E4,1.5308E4,1.3238E4,1.8958E4,2.0454E4,1.7753E4,8.672E3,2.077E3,8.708E3,3.209E3,1.2099E4,1.2101E4,1.137E3,1.4055E4,4.903E3,1.7334E4,3.12E3,5.451E3,1.2302E4,3.444E3,5.228E3,2.018E3,5.9E1,7.148E3,1.56E3,3.145E3,6.4E1,8.605E3,3.494E3,3.623E3,8.478E3,2.77E2,8.6E2,5.469E3,8.586E3,3.224E3,1.679E3,2.118E3,1.5216E4,2.542E3,5.78E2,5.158E3,2.93E2,5.39E3,6.912E3,1.646E3,1.798E3,9.26E2,4.302E3,1.421E3,5.97E2,6E0,5.3E1,5.495E3,1.653E3,1.489E3,7.1E1,3.2E2,2.825E3,1.2E1,5.2E1,8.454E3,1.51E2,1.185E3,2.309E3,2.813E3,8.1E2,3.225E3,5.253E3,2.61E2,1.6E1,7.4E2,1.2E2,5.456E3,1.3E1,8.463E3,1.23E2,1.987E3,1.237E3,1.678E3,1E0,1.567E3,5.51E2,1.2751E4,2.465E3,2.01E2,2.341E3,1.27E2,4.51E2,3.082E3,2.076E3,2.33E2,6E1,2.223E3,3.167E3,2.957E3,3.955E3,9.94E2,6.52E2,3.9E2,1.408E3,4.7E1,8.79E2,2.299E3,2.003E3,1.122E3,2.99E2,1.5E1,5.82E2,5E0,1E0,1.9E1,3.4E1,1.843E3,3.652E3,5.31E2,1.122E3,1.064E3,4.25E2,7E1,1E0],"tree_param":{"num_deleted":"0","num_feature":"14","num_nodes":"127","size_leaf_vector":"1"}},{"base_weights":[8.545065E-5,-1.4146003E-1,1.5730044E-1,-2.3179524E-1,-9.438172E-2,5.7338215E-2,2.4588197E-1,-2.8626218E-1,-1.9133666E-1,-1.070127E-1,3.1693507E-2,1.8172858E-2,1.3681702E-1,2.0515744E-1,3.6052573E-1,-3.1661016E-1,-1.5151416E-1,-1.3124381E-1,-2.4985759E-1,-2.2563623E-1,-8.126203E-2,-1.8340403E-1,6.4171195E-2,-3.491277E-2,1.2560967E-1,2.0651713E-2,2.1008088E-1,1.3809873E-1,2.7523383E-1,4.640931E-1,3.162849E-1,-3.9693764E-1,-2.7229133E-1,-1.3813661E-1,-5.254754E-1,-1.2292577E-1,-8.5330766E-1,-3.0144164E-1,-2.1323813E-1,-3.3098847E-1,-1.9828868E-1,-1.1250711E-1,-2.8130474E-2,-2.1720113E-1,1.1390659E0,1.596112E-1,-7.053676E-2,-1.6789742E-1,-8.690949E-3,3.2323327E-2,2.5601447E-1,-1.7179322E-1,1.13289565E-1,2.3968028E-1,-9.171417E-2,8.873278E-2,3.268895E-1,1.6831493E-1,3.7239715E-1,3.023755E-1,5.517812E-1,3.575052E-1,2.0588581E-1,-1.11772E-1,-1.8803477E-1,-8.112187E-2,-2.9235193E-1,-1.07439354E-1,-3.550973E-2,-2.2389513E-1,-1.1130848E-1,-5.556426E-2,-2.0537905E-2,-2.517504E-2,-3.1798086E-1,-7.576545E-2,-1.5284629E-1,-4.6137497E-2,-9.614099E-2,-1.1232911E-1,5.0261352E-2,-6.903246E-2,-4.062956E-2,-4.3188192E-2,-1.9086778E-2,-1.6393086E-2,7.336575E-2,2.6696187E-1,-6.736177E-2,-3.0090906E-2,4.276878E-1,3.054948E-2,1.06974535E-1,-9.37122E-2,6.9749947E-3,-3.6389347E-2,-1.1990084E-1,-9.202564E-3,6.169181E-2,8.350149E-3,2.9876956E-1,1.107651E-1,9.011466E-3,-6.919956E-2,-1.7901141E-2,4.076333E-2,-5.3225927E-2,4.297233E-2,8.551715E-2,1.3450633E-1,-6.442787E-2,1.8138902E-2,6.934779E-2,1.1640709E-1,6.282597E-2,2.5940342E-2,8.228506E-2,1.2536354E-1,5.8776375E-2,6.1711807E-2,1.1161465E-1,1.5809205E-1,2.736454E-1,8.548723E-2,1.3618551E-1,8.76319E-2,-2.260183E-2],"categories":[],"categories_nodes":[],"categories_segments":[],"categories_sizes":[],"default_left":[0,0,0,0,0,0,0,0,0,0,0,0,0,0,0,0,0,0,0,0,0,0,0,0,0,0,0,0,0,0,0,0,0,0,0,0,0,0,0,0,0,0,0,0,0,0,0,0,0,0,0,0,0,0,0,0,0,0,0,0,0,0,0,0,0,0,0,0,0,0,0,0,0,0,0,0,0,0,0,0,0,0,0,0,0,0,0,0,0,0,0,0,0,0,0,0,0,0,0,0,0,0,0,0,0,0,0,0,0,0,0,0,0,0,0,0,0,0,0,0,0,0,0,0,0,0,0],"id":9,"left_children":[1,3,5,7,9,11,13,15,17,19,21,23,25,27,29,31,33,35,37,39,41,43,45,47,49,51,53,55,57,59,61,63,65,67,69,71,73,75,77,79,81,83,85,87,89,91,93,95,97,99,101,103,105,107,109,111,113,115,117,119,121,123,125,-1,-1,-1,-1,-1,-1,-1,-1,-1,-1,-1,-1,-1,-1,-1,-1,-1,-1,-1,-1,-1,-1,-1,-1,-1,-1,-1,-1,-1,-1,-1,-1,-1,-1,-1,-1,-1,-1,-1,-1,-1,-1,-1,-1,-1,-1,-1,-1,-1,-1,-1,-1,-1,-1,-1,-1,-1,-1,-1,-1,-1,-1,-1,-1],"loss_changes":[2.3403557E3,2.353424E2,4.411942E2,4.1726562E1,5.7943176E1,7.287166E1,1.23262085E2,3.2989685E1,3.823584E1,1.01001465E2,2.3162945E1,8.945573E1,6.576648E1,9.157349E1,3.1573792E1,2.3363098E1,7.3664093E0,3.215419E1,1.0347778E1,1.6927246E1,4.51084E1,1.9690008E1,3.703806E1,3.660611E1,6.3091507E1,5.332424E1,4.2355225E1,9.283382E1,9.8961365E1,2.9187195E1,2.2015411E1,1.2881683E1,5.3651123E0,6.2078037E0,1.4626217E0,1.8005455E1,9.608711E0,2.3123154E1,2.0521393E1,2.6354218E1,9.339188E0,2.6300568E1,7.277289E1,3.652439E0,4.0496845E0,1.9151855E1,2.711121E1,1.8625557E1,4.132962E1,1.3058344E1,5.532077E1,6.4023E0,1.3282066E1,1.8846466E1,2.8272339E1,3.17943E1,1.4748337E1,3.9352737E1,3.9993835E1,4.840225E0,1.15078125E1,2.4590942E1,3.2077057E1,0E0,0E0,0E0,0E0,0E0,0E0,0E0,0E0,0E0,0E0,0E0,0E0,0E0,0E0,0E0,0E0,0E0,0E0,0E0,0E0,0E0,0E0,0E0,0E0,0E0,0E0,0E0,0E0,0E0,0E0,0E0,0E0,0E0,0E0,0E0,0E0,0E0,0E0,0E0,0E0,0E0,0E0,0E0,0E0,0E0,0E0,0E0,0E0,0E0,0E0,0E0,0E0,0E0,0E0,0E0,0E0,0E0,0E0,0E0,0E0,0E0,0E0,0E0,0E0],"parents":[2147483647,0,0,1,1,2,2,3,3,4,4,5,5,6,6,7,7,8,8,9,9,10,10,11,11,12,12,13,13,14,14,15,15,16,16,17,17,18,18,19,19,20,20,21,21,22,22,23,23,24,24,25,25,26,26,27,27,28,28,29,29,30,30,31,31,32,32,33,33,34,34,35,35,36,36,37,37,38,38,39,39,40,40,41,41,42,42,43,43,44,44,45,45,46,46,47,47,48,48,49,49,50,50,51,51,52,52,53,53,54,54,55,55,56,56,57,57,58,58,59,59,60,60,61,61,62,62],"right_children":[2,4,6,8,10,12,14,16,18,20,22,24,26,28,30,32,34,36,38,40,42,44,46,48,50,52,54,56,58,60,62,64,66,68,70,72,74,76,78,80,82,84,86,88,90,92,94,96,98,100,102,104,106,108,110,112,114,116,118,120,122,124,126,-1,-1,-1,-1,-1,-1,-1,-1,-1,-1,-1,-1,-1,-1,-1,-1,-1,-1,-1,-1,-1,-1,-1,-1,-1,-1,-1,-1,-1,-1,-1,-1,-1,-1,-1,-1,-1,-1,-1,-1,-1,-1,-1,-1,-1,-1,-1,-1,-1,-1,-1,-1,-1,-1,-1,-1,-1,-1,-1,-1,-1,-1,-1,-1],"split_conditions":[2.22E1,1.845E1,2.575E1,1.2675E1,8.958943E2,8.941187E2,2.94E1,8.955911E2,8.4670845E1,1.34E1,1.99E1,3.29E-1,1.0724999E1,1.24E1,2.4E1,1.605E1,2.0825E1,2E-1,1.7175001E1,5.1431793E1,8.9230945E2,1E-1,2.285E1,1.0325E1,8.9176996E2,8.9544336E2,1E-1,8.947237E2,8.912131E2,8.724999E0,1.355E1,1.3625E1,1.62E1,8.3E0,1.8075E1,8.9358167E2,1.9E1,1.71E1,1.8425001E1,1.23E1,2.07E-1,2.025E1,2E-1,4.2198753E1,7.453512E1,2.055E1,2.095E1,2.5325E1,2.6625E1,6.8E0,2.525E1,2.475E1,1E2,1.245E1,2.41E1,2.94E1,2.08E-1,2.7675001E1,1E-1,3.05E1,3.26E1,1.02E1,9.8E1,-1.11772E-1,-1.8803477E-1,-8.112187E-2,-2.9235193E-1,-1.07439354E-1,-3.550973E-2,-2.2389513E-1,-1.1130848E-1,-5.556426E-2,-2.0537905E-2,-2.517504E-2,-3.1798086E-1,-7.576545E-2,-1.5284629E-1,-4.6137497E-2,-9.614099E-2,-1.1232911E-1,5.0261352E-2,-6.903246E-2,-4.062956E-2,-4.3188192E-2,-1.9086778E-2,-1.6393086E-2,7.336575E-2,2.6696187E-1,-6.736177E-2,-3.0090906E-2,4.276878E-1,3.054948E-2,1.06974535E-1,-9.37122E-2,6.9749947E-3,-3.6389347E-2,-1.1990084E-1,-9.202564E-3,6.169181E-2,8.350149E-3,2.9876956E-1,1.107651E-1,9.011466E-3,-6.919956E-2,-1.7901141E-2,4.076333E-2,-5.3225927E-2,4.297233E-2,8.551715E-2,1.3450633E-1,-6.442787E-2,1.8138902E-2,6.934779E-2,1.1640709E-1,6.282597E-2,2.5940342E-2,8.228506E-2,1.2536354E-1,5.8776375E-2,6.1711807E-2,1.1161465E-1,1.5809205E-1,2.736454E-1,8.548723E-2,1.3618551E-1,8.76319E-2,-2.260183E-2],"split_indices":[0,0,0,4,9,9,7,9,8,11,7,12,4,11,3,0,7,6,0,8,9,13,7,11,2,2,6,9,2,11,4,11,11,4,0,9,7,7,7,11,12,0,13,8,8,0,0,7,7,6,7,0,3,4,7,0,5,0,6,7,0,11,3,0,0,0,0,0,0,0,0,0,0,0,0,0,0,0,0,0,0,0,0,0,0,0,0,0,0,0,0,0,0,0,0,0,0,0,0,0,0,0,0,0,0,0,0,0,0,0,0,0,0,0,0,0,0,0,0,0,0,0,0,0,0,0,0],"split_type":[0,0,0,0,0,0,0,0,0,0,0,0,0,0,0,0,0,0,0,0,0,0,0,0,0,0,0,0,0,0,0,0,0,0,0,0,0,0,0,0,0,0,0,0,0,0,0,0,0,0,0,0,0,0,0,0,0,0,0,0,0,0,0,0,0,0,0,0,0,0,0,0,0,0,0,0,0,0,0,0,0,0,0,0,0,0,0,0,0,0,0,0,0,0,0,0,0,0,0,0,0,0,0,0,0,0,0,0,0,0,0,0,0,0,0,0,0,0,0,0,0,0,0,0,0,0,0],"sum_hessian":[1.05168E5,5.5342E4,4.9826E4,1.8959E4,3.6383E4,2.341E4,2.6416E4,8.078E3,1.0881E4,3.307E4,3.313E3,1.5683E4,7.727E3,1.9494E4,6.922E3,6.592E3,1.486E3,5.37E3,5.511E3,5.897E3,2.7173E4,4.34E2,2.879E3,1.0497E4,5.186E3,2.989E3,4.738E3,9.963E3,9.531E3,2.069E3,4.853E3,2.341E3,4.251E3,1.436E3,5E1,5.31E3,6E1,2.285E3,3.226E3,1.213E3,4.684E3,1.711E4,1.0063E4,4.24E2,1E1,1.685E3,1.194E3,1.728E3,8.769E3,3.024E3,2.162E3,9.71E2,2.018E3,4.315E3,4.23E2,7.899E3,2.064E3,4.539E3,4.992E3,7.29E2,1.34E3,3.532E3,1.321E3,2.119E3,2.22E2,4.241E3,1E1,1.17E2,1.319E3,1.9E1,3.1E1,2.476E3,2.834E3,1.3E1,4.7E1,1.852E3,4.33E2,2.077E3,1.149E3,1.116E3,9.7E1,3.108E3,1.576E3,1.041E4,6.7E3,9.172E3,8.91E2,2E0,4.22E2,2E0,8E0,1.304E3,3.81E2,3.33E2,8.61E2,1.44E3,2.88E2,7.954E3,8.15E2,3.011E3,1.3E1,1.44E3,7.22E2,6.36E2,3.35E2,1.873E3,1.45E2,1.382E3,2.933E3,7.8E1,3.45E2,6.592E3,1.307E3,1.356E3,7.08E2,2.562E3,1.977E3,3.968E3,1.024E3,3.07E2,4.22E2,1.256E3,8.4E1,2.018E3,1.514E3,1.011E3,3.1E2],"tree_param":{"num_deleted":"0","num_feature":"14","num_nodes":"127","size_leaf_vector":"1"}},{"base_weights":[6.365411E-5,-7.4579746E-2,1.5245691E-1,-1.2717079E-1,-1.4395159E-2,1.2107011E-1,2.4006784E-1,-1.724172E-1,-9.390476E-2,-2.3466524E-2,1.8422602E-1,1.3796997E-1,-1.8479213E-2,2.0198515E-1,3.6884764E-1,-2.0534073E-1,-1.2878652E-1,-8.795348E-2,-2.5522324E-1,-4.1490734E-2,5.581991E-2,3.489106E-2,3.5776138E-1,1.1917427E-1,2.7428603E-1,-1.0658653E-2,-9.4560206E-1,1.9537213E0,1.9921544E-1,3.3832932E-1,5.59098E-1,-2.1755792E-1,-6.629033E-2,-1.2118643E-1,-5.9027314E-1,-9.903891E-2,2.0247184E-2,-1.4831662E-1,-3.823609E-1,-1.3463949E-1,-1.3808235E-2,-1.2716681E-1,7.91157E-2,2.9047805E-1,-5.1689144E-2,1.4417006E-1,5.0987643E-1,8.238452E-2,2.1415128E-1,2.0345671E-2,3.0913013E-1,7.359177E-2,-9.104173E-2,-1.2137427E0,2.624527E-1,2.4843723E-1,6.8169147E-1,1.8282484E-1,4.647934E-1,3.081529E-1,4.9134496E-1,5.7154816E-1,-4.6152782E-1,-1.35019E-1,-6.319798E-2,-1.3434392E-2,-1.0450665E-1,-4.953186E-2,-1.2477248E-2,-4.363202E-1,-1.4420255E-1,-2.3034694E-2,-5.1589716E-2,-5.3032998E-2,3.359955E-2,-2.7497416E-2,-1.1236029E-1,-1.3698229E-1,-5.9531484E-2,-2.0561643E-2,-5.9571207E-2,-1.1065626E-2,2.6981141E-2,-5.2521534E-2,2.7586928E-1,4.6344746E-2,1.1067631E-3,-2.138841E-1,1.0447761E-1,-7.417144E-2,-4.8414394E-3,7.817828E-2,-5.409139E-2,2.0965247E-1,5.4371398E-2,1.9382216E-2,7.174661E-2,2.6492026E-2,8.2836844E-2,-9.421466E-2,4.595366E-2,1.5712558E-1,8.133163E-2,-4.0819854E-2,3.8765565E-2,-1.4659733E-2,-8.824842E-2,-3.995908E-1,1.3715029E-1,-7.231808E-2,1.3457881E-1,3.0795228E-2,7.119784E-2,1.3467523E-1,5.86811E-1,6.99153E-2,1.13945305E-1,1.881061E-1,1.23795666E-1,2.085401E-1,1.44844E-1,-3.1198484E-1,2.3378754E-2],"categories":[],"categories_nodes":[],"categories_segments":[],"categories_sizes":[],"default_left":[0,0,0,0,0,0,0,0,0,0,0,0,0,0,0,0,0,0,0,0,0,0,0,0,0,0,0,0,0,0,0,0,0,0,0,0,0,0,0,0,0,0,0,0,0,0,0,0,0,0,0,0,0,0,0,0,0,0,0,0,0,0,0,0,0,0,0,0,0,0,0,0,0,0,0,0,0,0,0,0,0,0,0,0,0,0,0,0,0,0,0,0,0,0,0,0,0,0,0,0,0,0,0,0,0,0,0,0,0,0,0,0,0,0,0,0,0,0,0,0,0,0,0],"id":10,"left_children":[1,3,5,7,9,11,13,15,17,19,21,23,25,27,29,31,33,35,37,39,41,43,45,47,49,51,53,55,57,59,61,63,65,67,69,71,73,75,77,79,81,83,85,87,89,91,93,95,97,99,101,103,105,107,109,-1,-1,111,113,115,117,119,121,-1,-1,-1,-1,-1,-1,-1,-1,-1,-1,-1,-1,-1,-1,-1,-1,-1,-1,-1,-1,-1,-1,-1,-1,-1,-1,-1,-1,-1,-1,-1,-1,-1,-1,-1,-1,-1,-1,-1,-1,-1,-1,-1,-1,-1,-1,-1,-1,-1,-1,-1,-1,-1,-1,-1,-1,-1,-1,-1,-1],"loss_changes":[1.1963246E3,2.2343704E2,9.505176E1,5.668799E1,5.9320232E1,6.004416E1,4.4647583E1,2.2901184E1,2.082315E1,4.4995323E1,3.725313E1,5.8151306E1,1.9936375E1,3.3767517E1,1.1887573E1,1.5436218E1,2.4013374E1,2.5120895E1,1.0436199E1,6.614671E1,2.487083E1,1.7142685E1,2.1532646E1,6.972272E1,2.433545E1,1.8488329E1,7.7689075E0,2.0628128E0,3.051654E1,8.136917E0,3.897995E0,1.3313171E1,4.4496717E0,2.3614388E1,9.813339E0,3.0819244E1,3.5216103E1,5.3617E0,4.716179E0,2.4821983E1,4.735244E1,3.3205627E1,2.9411816E1,1.1612082E1,4.0211973E0,1.054891E1,2.3968613E1,4.0082993E1,4.3430435E1,1.483953E1,1.9599289E1,1.5563823E1,1.1953397E1,4.3623047E0,5.7676655E-1,0E0,0E0,2.8915436E1,8.781265E0,7.9954834E0,2.8802032E0,2.7678528E0,1.3291767E0,0E0,0E0,0E0,0E0,0E0,0E0,0E0,0E0,0E0,0E0,0E0,0E0,0E0,0E0,0E0,0E0,0E0,0E0,0E0,0E0,0E0,0E0,0E0,0E0,0E0,0E0,0E0,0E0,0E0,0E0,0E0,0E0,0E0,0E0,0E0,0E0,0E0,0E0,0E0,0E0,0E0,0E0,0E0,0E0,0E0,0E0,0E0,0E0,0E0,0E0,0E0,0E0,0E0,0E0,0E0,0E0,0E0,0E0,0E0,0E0],"parents":[2147483647,0,0,1,1,2,2,3,3,4,4,5,5,6,6,7,7,8,8,9,9,10,10,11,11,12,12,13,13,14,14,15,15,16,16,17,17,18,18,19,19,20,20,21,21,22,22,23,23,24,24,25,25,26,26,27,27,28,28,29,29,30,30,31,31,32,32,33,33,34,34,35,35,36,36,37,37,38,38,39,39,40,40,41,41,42,42,43,43,44,44,45,45,46,46,47,47,48,48,49,49,50,50,51,51,52,52,53,53,54,54,57,57,58,58,59,59,60,60,61,61,62,62],"right_children":[2,4,6,8,10,12,14,16,18,20,22,24,26,28,30,32,34,36,38,40,42,44,46,48,50,52,54,56,58,60,62,64,66,68,70,72,74,76,78,80,82,84,86,88,90,92,94,96,98,100,102,104,106,108,110,-1,-1,112,114,116,118,120,122,-1,-1,-1,-1,-1,-1,-1,-1,-1,-1,-1,-1,-1,-1,-1,-1,-1,-1,-1,-1,-1,-1,-1,-1,-1,-1,-1,-1,-1,-1,-1,-1,-1,-1,-1,-1,-1,-1,-1,-1,-1,-1,-1,-1,-1,-1,-1,-1,-1,-1,-1,-1,-1,-1,-1,-1,-1,-1,-1,-1],"split_conditions":[2.45E1,2.01E1,2.885E1,1.8075E1,4.76E-1,1E2,8.925129E2,2.1E1,2.2075E1,8.9516486E2,8.9185864E2,1E-1,1.3E0,2.3175001E1,3.0825E1,8.961773E2,2.0375E1,8.954423E2,9.5E1,1.345E1,2.11E1,8.121099E1,9.9E1,8.9423364E2,8.8960144E2,2.625E1,6.852153E1,8.905954E2,3.26E1,9.4E1,1E-1,1.4224999E1,2.02E1,8.9403644E2,1.74E1,8.931268E2,1.955E1,8.9669037E2,2.38E1,8.930818E2,8.9355396E2,1E-1,4.2E1,6.4726074E1,7.340142E1,4.9E-1,1.9E1,3.91E-1,8.8E0,2.35E1,2.4E1,8.9004504E2,1E-1,3.145E1,8.8834717E2,2.4843723E-1,6.8169147E-1,1.0325E1,1.48E1,8.9328955E2,2.905E1,2E-1,2.7119314E1,-1.35019E-1,-6.319798E-2,-1.3434392E-2,-1.0450665E-1,-4.953186E-2,-1.2477248E-2,-4.363202E-1,-1.4420255E-1,-2.3034694E-2,-5.1589716E-2,-5.3032998E-2,3.359955E-2,-2.7497416E-2,-1.1236029E-1,-1.3698229E-1,-5.9531484E-2,-2.0561643E-2,-5.9571207E-2,-1.1065626E-2,2.6981141E-2,-5.2521534E-2,2.7586928E-1,4.6344746E-2,1.1067631E-3,-2.138841E-1,1.0447761E-1,-7.417144E-2,-4.8414394E-3,7.817828E-2,-5.409139E-2,2.0965247E-1,5.4371398E-2,1.9382216E-2,7.174661E-2,2.6492026E-2,8.2836844E-2,-9.421466E-2,4.595366E-2,1.5712558E-1,8.133163E-2,-4.0819854E-2,3.8765565E-2,-1.4659733E-2,-8.824842E-2,-3.995908E-1,1.3715029E-1,-7.231808E-2,1.3457881E-1,3.0795228E-2,7.119784E-2,1.3467523E-1,5.86811E-1,6.99153E-2,1.13945305E-1,1.881061E-1,1.23795666E-1,2.085401E-1,1.44844E-1,-3.1198484E-1,2.3378754E-2],"split_indices":[0,0,0,0,12,3,9,3,7,9,2,13,6,7,0,9,7,9,3,11,7,8,10,9,2,7,1,2,0,10,6,0,7,9,0,2,7,2,7,2,9,13,3,8,1,5,11,12,4,7,3,2,6,7,2,0,0,11,11,9,7,12,1,0,0,0,0,0,0,0,0,0,0,0,0,0,0,0,0,0,0,0,0,0,0,0,0,0,0,0,0,0,0,0,0,0,0,0,0,0,0,0,0,0,0,0,0,0,0,0,0,0,0,0,0,0,0,0,0,0,0,0,0],"split_type":[0,0,0,0,0,0,0,0,0,0,0,0,0,0,0,0,0,0,0,0,0,0,0,0,0,0,0,0,0,0,0,0,0,0,0,0,0,0,0,0,0,0,0,0,0,0,0,0,0,0,0,0,0,0,0,0,0,0,0,0,0,0,0,0,0,0,0,0,0,0,0,0,0,0,0,0,0,0,0,0,0,0,0,0,0,0,0,0,0,0,0,0,0,0,0,0,0,0,0,0,0,0,0,0,0,0,0,0,0,0,0,0,0,0,0,0,0,0,0,0,0,0,0],"sum_hessian":[1.05168E5,7.0592E4,3.4576E4,3.7672E4,3.292E4,2.5458E4,9.118E3,1.596E4,2.1712E4,3.1483E4,1.437E3,2.2708E4,2.75E3,7.039E3,2.079E3,9.094E3,6.866E3,2.0941E4,7.71E2,2.5652E4,5.831E3,7.73E2,6.64E2,1.9958E4,2.75E3,2.728E3,2.2E1,1E1,7.029E3,1.794E3,2.85E2,8.359E3,7.35E2,6.756E3,1.1E2,1.8995E4,1.946E3,4.2E2,3.51E2,5.876E3,1.9776E4,6.58E2,5.173E3,1.95E2,5.78E2,2.77E2,3.87E2,1.4387E4,5.571E3,3.32E2,2.418E3,1.332E3,1.396E3,1.8E1,4E0,3E0,7E0,6.622E3,4.07E2,1.501E3,2.93E2,2.82E2,3E0,2.39E2,8.12E3,6.84E2,5.1E1,4.353E3,2.403E3,1.1E1,9.9E1,1.4555E4,4.44E3,6.18E2,1.328E3,3.37E2,8.3E1,2.49E2,1.02E2,2.89E3,2.986E3,1.6178E4,3.598E3,6.3E2,2.8E1,2.587E3,2.586E3,1E1,1.85E2,8.8E1,4.9E2,2.04E2,7.3E1,2.45E2,1.42E2,1.2923E4,1.464E3,1.839E3,3.732E3,9.4E1,2.38E2,3.62E2,2.056E3,2.79E2,1.053E3,1.157E3,2.39E2,1.7E1,1E0,1E0,3E0,2.681E3,3.941E3,4.04E2,3E0,7.35E2,7.66E2,1.05E2,1.88E2,1.15E2,1.67E2,1E0,2E0],"tree_param":{"num_deleted":"0","num_feature":"14","num_nodes":"123","size_leaf_vector":"1"}},{"base_weights":[5.7259687E-5,-7.603972E-2,7.596923E-2,-1.22694634E-1,-5.2185178E-2,3.783626E-2,1.5089092E-1,-1.4739598E-1,-3.7663177E-2,-4.2022895E-2,-1.5303764E-1,1.3703966E-2,9.430226E-2,1.3318533E-1,2.9894623E-1,-2.1405688E-1,-1.2933134E-1,-2.2367992E-1,-2.578607E-2,-6.461012E-2,2.631674E-3,-2.6034582E-1,-7.7472344E-2,1.035878E-2,5.278654E-1,8.574605E-3,1.527685E-1,1.3483274E-1,-1.741424E0,4.056907E-1,2.2526972E-1,-2.3032288E-1,-2.450839E-2,-1.1928134E-1,-3.084508E-1,2.965173E-1,-3.139405E-1,-1.6697736E-2,-1.6273881E-1,-3.527275E-2,-1.1220005E-1,9.4735354E-2,-4.185607E-2,-2.910271E-1,2.5770608E-1,-9.8042026E-2,6.800196E-2,2.0333065E-2,-1.7380616E-1,7.3846316E-1,9.671017E-2,5.0984077E-2,-9.3617626E-2,9.931739E-3,2.1032685E-1,8.053774E-2,1.8757781E-1,-5.1912284E-1,-2.8895648E0,2.2938003E-1,4.62757E-1,1.417356E-1,4.0000176E-1,-6.429883E-2,-1.0802761E-1,3.217094E-2,-7.404902E-2,-3.979259E-2,-1.12237E-2,-1.4715128E-1,6.0107177E-3,1.434574E-1,-1.5733354E-1,-8.095483E-2,-2.688582E-1,1.1632637E-4,-3.2712217E-2,-6.821363E-2,5.2995257E-2,-2.069079E-2,1.9642627E-2,-3.5093196E-2,6.940498E-2,6.4780866E-3,4.472477E-2,-3.4388263E-2,6.298034E-3,-1.058901E-1,-2.3153996E-2,7.194426E-1,5.866014E-2,-2.3575924E-1,-2.8254516E-2,-2.4323945E-3,6.823007E-2,-8.759145E-3,1.6293269E-2,-7.984536E-2,-9.123263E-3,4.8737004E-1,1.757889E-1,6.1654907E-2,-3.8626343E-1,1.4106773E-2,3.6863703E-1,-4.3773547E-2,2.9978452E-2,-1.973248E-2,4.3544672E-2,4.435191E-2,8.523157E-2,4.5158817E-3,4.475334E-2,8.6663865E-2,4.8860922E-2,-2.9431602E-1,1.7333373E-1,-9.346016E-1,-2.3023826E-1,-8.660311E-2,7.787906E-2,8.671827E-2,1.5782797E-1,-4.8762787E-2,6.51599E-2,2.4446274E-1,8.395304E-2],"categories":[],"categories_nodes":[],"categories_segments":[],"categories_sizes":[],"default_left":[0,0,0,0,0,0,0,0,0,0,0,0,0,0,0,0,0,0,0,0,0,0,0,0,0,0,0,0,0,0,0,0,0,0,0,0,0,0,0,0,0,0,0,0,0,0,0,0,0,0,0,0,0,0,0,0,0,0,0,0,0,0,0,0,0,0,0,0,0,0,0,0,0,0,0,0,0,0,0,0,0,0,0,0,0,0,0,0,0,0,0,0,0,0,0,0,0,0,0,0,0,0,0,0,0,0,0,0,0,0,0,0,0,0,0,0,0,0,0,0,0,0,0,0,0,0,0],"id":11,"left_children":[1,3,5,7,9,11,13,15,17,19,21,23,25,27,29,31,33,35,37,39,41,43,45,47,49,51,53,55,57,59,61,63,65,67,69,71,73,75,77,79,81,83,85,87,89,91,93,95,97,99,101,103,105,107,109,111,113,115,117,119,121,123,125,-1,-1,-1,-1,-1,-1,-1,-1,-1,-1,-1,-1,-1,-1,-1,-1,-1,-1,-1,-1,-1,-1,-1,-1,-1,-1,-1,-1,-1,-1,-1,-1,-1,-1,-1,-1,-1,-1,-1,-1,-1,-1,-1,-1,-1,-1,-1,-1,-1,-1,-1,-1,-1,-1,-1,-1,-1,-1,-1,-1,-1,-1,-1,-1],"loss_changes":[6.075325E2,5.8445892E1,1.5041177E2,3.731421E1,3.5612633E1,4.754444E1,4.651114E1,1.6551819E1,8.833805E0,3.1846428E1,2.5773842E1,4.2040802E1,5.236087E1,4.922351E1,1.4819824E1,9.040451E0,1.9467834E1,1.1361883E1,4.679739E0,2.9270798E1,4.346599E1,2.0960388E1,5.5963964E0,4.462033E1,1.4275036E1,1.8367584E1,5.1061325E1,4.5376038E1,1.814719E1,7.6713104E0,1.6349308E1,5.5307007E0,6.850977E0,1.12187195E1,3.439604E1,5.620096E0,5.0209618E0,5.567835E0,5.1736884E0,4.4046097E1,1.3150337E1,1.3730574E1,3.271774E1,1.641063E1,9.378693E0,4.2725544E0,2.8170085E0,3.8779636E1,1.6517723E1,1.3371948E1,8.247232E0,1.3916531E1,1.2595383E1,1.8282309E1,2.036737E1,3.5111755E1,2.007431E1,4.6203723E0,9.629135E-1,3.0648623E0,6.2616577E0,1.7532404E1,1.7867714E1,0E0,0E0,0E0,0E0,0E0,0E0,0E0,0E0,0E0,0E0,0E0,0E0,0E0,0E0,0E0,0E0,0E0,0E0,0E0,0E0,0E0,0E0,0E0,0E0,0E0,0E0,0E0,0E0,0E0,0E0,0E0,0E0,0E0,0E0,0E0,0E0,0E0,0E0,0E0,0E0,0E0,0E0,0E0,0E0,0E0,0E0,0E0,0E0,0E0,0E0,0E0,0E0,0E0,0E0,0E0,0E0,0E0,0E0,0E0,0E0,0E0,0E0,0E0,0E0],"parents":[2147483647,0,0,1,1,2,2,3,3,4,4,5,5,6,6,7,7,8,8,9,9,10,10,11,11,12,12,13,13,14,14,15,15,16,16,17,17,18,18,19,19,20,20,21,21,22,22,23,23,24,24,25,25,26,26,27,27,28,28,29,29,30,30,31,31,32,32,33,33,34,34,35,35,36,36,37,37,38,38,39,39,40,40,41,41,42,42,43,43,44,44,45,45,46,46,47,47,48,48,49,49,50,50,51,51,52,52,53,53,54,54,55,55,56,56,57,57,58,58,59,59,60,60,61,61,62,62],"right_children":[2,4,6,8,10,12,14,16,18,20,22,24,26,28,30,32,34,36,38,40,42,44,46,48,50,52,54,56,58,60,62,64,66,68,70,72,74,76,78,80,82,84,86,88,90,92,94,96,98,100,102,104,106,108,110,112,114,116,118,120,122,124,126,-1,-1,-1,-1,-1,-1,-1,-1,-1,-1,-1,-1,-1,-1,-1,-1,-1,-1,-1,-1,-1,-1,-1,-1,-1,-1,-1,-1,-1,-1,-1,-1,-1,-1,-1,-1,-1,-1,-1,-1,-1,-1,-1,-1,-1,-1,-1,-1,-1,-1,-1,-1,-1,-1,-1,-1,-1,-1,-1,-1,-1,-1,-1,-1],"split_conditions":[2.18E1,1.34E1,2.71E1,8.957698E2,2E-1,9.2E1,1.59E1,1.605E1,8.1E0,8.9292053E2,8.4176895E1,2.99E1,8.9176996E2,1.4E0,4.7E1,1.6975E1,2.0825E1,6.6E0,1.345E1,8.915575E2,8.9294543E2,2.715E1,4.94E-1,2E-1,8.9197217E2,1E2,1.13E1,8.9231085E2,7.1E1,3.5E1,8.9185864E2,1.3625E1,1.325E1,2.055E1,8.949125E2,2.26E1,2.3425001E1,2.2925001E1,2.13E-1,8.915088E2,4.99E-1,1.61E1,8.943897E2,4.15E-1,1.83E-1,1.665E1,8.9210895E2,2.375E1,2.655E1,6.5E1,1E-1,5.7E0,8.9108905E2,8.9554144E2,1E2,2.9775002E1,7E0,2.8E0,8.909852E2,2.45E1,2.525E1,2.47E1,2.5925001E1,-6.429883E-2,-1.0802761E-1,3.217094E-2,-7.404902E-2,-3.979259E-2,-1.12237E-2,-1.4715128E-1,6.0107177E-3,1.434574E-1,-1.5733354E-1,-8.095483E-2,-2.688582E-1,1.1632637E-4,-3.2712217E-2,-6.821363E-2,5.2995257E-2,-2.069079E-2,1.9642627E-2,-3.5093196E-2,6.940498E-2,6.4780866E-3,4.472477E-2,-3.4388263E-2,6.298034E-3,-1.058901E-1,-2.3153996E-2,7.194426E-1,5.866014E-2,-2.3575924E-1,-2.8254516E-2,-2.4323945E-3,6.823007E-2,-8.759145E-3,1.6293269E-2,-7.984536E-2,-9.123263E-3,4.8737004E-1,1.757889E-1,6.1654907E-2,-3.8626343E-1,1.4106773E-2,3.6863703E-1,-4.3773547E-2,2.9978452E-2,-1.973248E-2,4.3544672E-2,4.435191E-2,8.523157E-2,4.5158817E-3,4.475334E-2,8.6663865E-2,4.8860922E-2,-2.9431602E-1,1.7333373E-1,-9.346016E-1,-2.3023826E-1,-8.660311E-2,7.787906E-2,8.671827E-2,1.5782797E-1,-4.8762787E-2,6.51599E-2,2.4446274E-1,8.395304E-2],"split_indices":[0,4,0,9,6,10,11,0,4,9,8,7,2,6,3,7,7,11,11,2,2,7,12,6,9,3,11,2,10,10,2,11,11,0,9,7,7,7,12,9,12,4,9,12,5,0,2,7,7,3,13,13,9,9,10,0,3,6,2,7,7,7,7,0,0,0,0,0,0,0,0,0,0,0,0,0,0,0,0,0,0,0,0,0,0,0,0,0,0,0,0,0,0,0,0,0,0,0,0,0,0,0,0,0,0,0,0,0,0,0,0,0,0,0,0,0,0,0,0,0,0,0,0,0,0,0,0],"split_type":[0,0,0,0,0,0,0,0,0,0,0,0,0,0,0,0,0,0,0,0,0,0,0,0,0,0,0,0,0,0,0,0,0,0,0,0,0,0,0,0,0,0,0,0,0,0,0,0,0,0,0,0,0,0,0,0,0,0,0,0,0,0,0,0,0,0,0,0,0,0,0,0,0,0,0,0,0,0,0,0,0,0,0,0,0,0,0,0,0,0,0,0,0,0,0,0,0,0,0,0,0,0,0,0,0,0,0,0,0,0,0,0,0,0,0,0,0,0,0,0,0,0,0,0,0,0,0],"sum_hessian":[1.05168E5,5.252E4,5.2648E4,1.7767E4,3.4753E4,3.4891E4,1.7757E4,1.3767E4,4E3,3.1573E4,3.18E3,2.4445E4,1.0446E4,1.5862E4,1.895E3,2.933E3,1.0834E4,2.39E2,3.761E3,2.0967E4,1.0606E4,1.313E3,1.867E3,2.4288E4,1.57E2,4.236E3,6.21E3,1.5849E4,1.3E1,7.72E2,1.123E3,2.701E3,2.32E2,1.026E4,5.74E2,3.5E1,2.04E2,3.528E3,2.33E2,1.2972E4,7.995E3,3.454E3,7.152E3,1.24E3,7.3E1,1.636E3,2.31E2,2.3041E4,1.247E3,1.05E2,5.2E1,2.994E3,1.242E3,1.784E3,4.426E3,7.811E3,8.038E3,7E0,6E0,1.9E2,5.82E2,7.61E2,3.62E2,2.407E3,2.94E2,1.46E2,8.6E1,8.82E3,1.44E3,3.69E2,2.05E2,2.9E1,6E0,1.91E2,1.3E1,2.978E3,5.5E2,1.96E2,3.7E1,9.721E3,3.251E3,7.886E3,1.09E2,1.473E3,1.981E3,3.314E3,3.838E3,9.61E2,2.79E2,1E0,7.2E1,8E0,1.628E3,1.57E2,7.4E1,9.375E3,1.3666E4,7.58E2,4.89E2,1.4E1,9.1E1,4.9E1,3E0,2.985E3,9E0,9.78E2,2.64E2,1.144E3,6.4E2,2.398E3,2.028E3,3.998E3,3.813E3,1.574E3,6.464E3,5E0,2E0,5E0,1E0,1E1,1.8E2,1.57E2,4.25E2,1.51E2,6.1E2,8E1,2.82E2],"tree_param":{"num_deleted":"0","num_feature":"14","num_nodes":"127","size_leaf_vector":"1"}},{"base_weights":[3.9664486E-5,-4.3010607E-2,6.894778E-2,-7.773072E-2,-1.6662037E-2,5.5564668E-2,1.6548896E-1,-1.2946819E-1,-6.5243594E-2,-2.5330782E-2,7.022513E-2,3.2459653E-3,8.164001E-2,3.3078715E-2,1.8931614E-1,-3.405991E-1,-1.2057025E-1,-8.479607E-2,-2.2515036E-2,-1.74218E-2,-1.0186873E-1,2.1026286E-3,1.5435089E-1,-2.4453362E-2,1.1163479E-1,9.6642494E-2,-7.645504E-2,-5.9560895E-1,4.930758E-2,1.557887E-1,2.6537353E-1,-5.5700743E-1,-1.6716655E-1,-1.12295724E-1,-2.5564986E-1,-8.013098E-2,-3.0077562E-1,5.788854E-2,-6.483973E-2,-2.8414473E-2,3.2748062E-2,-1.3998815E-1,1.4343907E-1,-1.3565631E-3,1.0631475E0,2.225198E-1,-1.1433453E-1,-1.4283089E-2,-2.6414773E-1,6.350058E-2,2.8903523E-1,6.494541E-2,1.5340447E-1,-1.3731499E-1,1.20838664E-1,-3.6654806E-1,-1.3629503E0,1.182156E-1,-9.0412796E-2,1.7655326E-1,-5.6466915E-2,2.4666743E-1,1.0605854E0,6.355186E-2,-1.8032856E-1,-2.0849422E-2,-2.7678636E-1,-3.6996998E-2,-1.4776995E-2,-2.2327505E-1,-6.542755E-2,-3.634602E-2,-1.6581569E-2,-4.7608856E-2,-1.8891256E-1,3.0217271E-2,-1.7641347E-2,-1.1736238E-2,-4.8169043E-2,-3.5543077E-2,-4.133589E-3,-8.756663E-3,2.2687415E-2,-7.849763E-2,-1.1215756E-2,7.951228E-2,-3.1813677E-2,-1.2150814E-3,2.1149206E-1,-5.8687214E-2,5.2243185E-1,1.1688761E-1,1.6089907E-2,4.1147918E-2,-8.399949E-2,-2.0038355E-2,9.106849E-3,-4.9704965E-2,-1.8706922E-1,2.697556E-3,5.6435075E-2,9.237713E-2,-9.50807E-2,9.977667E-3,4.6939816E-2,5.2828334E-2,-5.964396E-3,2.9387723E-3,-5.730129E-2,6.587253E-3,1.2163222E-1,-1.3226326E-1,1.12259105E-1,-4.5040227E-2,-5.1515335E-1,1.7104043E-2,1.244413E-1,1.4721163E-2,-5.36215E-2,4.5969315E-2,8.7655365E-2,9.2473075E-2,-5.3324252E-2,1.15529355E-2,9.447118E-2,7.2072154E-1,2.0428182E-1],"categories":[],"categories_nodes":[],"categories_segments":[],"categories_sizes":[],"default_left":[0,0,0,0,0,0,0,0,0,0,0,0,0,0,0,0,0,0,0,0,0,0,0,0,0,0,0,0,0,0,0,0,0,0,0,0,0,0,0,0,0,0,0,0,0,0,0,0,0,0,0,0,0,0,0,0,0,0,0,0,0,0,0,0,0,0,0,0,0,0,0,0,0,0,0,0,0,0,0,0,0,0,0,0,0,0,0,0,0,0,0,0,0,0,0,0,0,0,0,0,0,0,0,0,0,0,0,0,0,0,0,0,0,0,0,0,0,0,0,0,0,0,0,0,0,0,0],"id":12,"left_children":[1,3,5,7,9,11,13,15,17,19,21,23,25,27,29,31,33,35,37,39,41,43,45,47,49,51,53,55,57,59,61,63,65,67,69,71,73,75,77,79,81,83,85,87,89,91,93,95,97,99,101,103,105,107,109,111,113,115,117,119,121,123,125,-1,-1,-1,-1,-1,-1,-1,-1,-1,-1,-1,-1,-1,-1,-1,-1,-1,-1,-1,-1,-1,-1,-1,-1,-1,-1,-1,-1,-1,-1,-1,-1,-1,-1,-1,-1,-1,-1,-1,-1,-1,-1,-1,-1,-1,-1,-1,-1,-1,-1,-1,-1,-1,-1,-1,-1,-1,-1,-1,-1,-1,-1,-1,-1],"loss_changes":[3.119882E2,5.9215347E1,5.2240128E1,1.80345E1,2.77219E1,4.845439E1,1.5525635E1,1.0158012E1,1.87957E1,2.0255838E1,1.9135006E1,3.5474876E1,5.622896E1,7.7019396E0,1.059729E1,8.12645E0,5.795723E0,1.5528633E1,2.4046347E1,1.6729053E1,2.9326096E1,6.776923E0,2.738953E1,2.2937962E1,2.0518011E1,3.8942474E1,2.4691566E1,2.840003E0,7.077533E0,1.2782593E1,1.8704422E1,3.4153175E0,9.011324E0,3.4085999E0,5.342947E0,1.5403206E1,1.5135548E1,1.2187576E1,1.1389914E1,3.2795002E1,1.4480803E1,3.3858456E1,1.2830656E1,3.5056283E0,5.4635534E0,3.3619637E1,1.2662442E1,2.1166643E1,1.3450964E1,1.2856848E1,5.969345E0,4.0286987E1,3.0502869E1,1.24100685E1,1.363986E1,1.045922E0,1.4606438E0,8.907066E0,3.0025163E0,7.0747223E0,1.1510956E1,1.7700188E1,1.3137184E1,0E0,0E0,0E0,0E0,0E0,0E0,0E0,0E0,0E0,0E0,0E0,0E0,0E0,0E0,0E0,0E0,0E0,0E0,0E0,0E0,0E0,0E0,0E0,0E0,0E0,0E0,0E0,0E0,0E0,0E0,0E0,0E0,0E0,0E0,0E0,0E0,0E0,0E0,0E0,0E0,0E0,0E0,0E0,0E0,0E0,0E0,0E0,0E0,0E0,0E0,0E0,0E0,0E0,0E0,0E0,0E0,0E0,0E0,0E0,0E0,0E0,0E0,0E0,0E0],"parents":[2147483647,0,0,1,1,2,2,3,3,4,4,5,5,6,6,7,7,8,8,9,9,10,10,11,11,12,12,13,13,14,14,15,15,16,16,17,17,18,18,19,19,20,20,21,21,22,22,23,23,24,24,25,25,26,26,27,27,28,28,29,29,30,30,31,31,32,32,33,33,34,34,35,35,36,36,37,37,38,38,39,39,40,40,41,41,42,42,43,43,44,44,45,45,46,46,47,47,48,48,49,49,50,50,51,51,52,52,53,53,54,54,55,55,56,56,57,57,58,58,59,59,60,60,61,61,62,62],"right_children":[2,4,6,8,10,12,14,16,18,20,22,24,26,28,30,32,34,36,38,40,42,44,46,48,50,52,54,56,58,60,62,64,66,68,70,72,74,76,78,80,82,84,86,88,90,92,94,96,98,100,102,104,106,108,110,112,114,116,118,120,122,124,126,-1,-1,-1,-1,-1,-1,-1,-1,-1,-1,-1,-1,-1,-1,-1,-1,-1,-1,-1,-1,-1,-1,-1,-1,-1,-1,-1,-1,-1,-1,-1,-1,-1,-1,-1,-1,-1,-1,-1,-1,-1,-1,-1,-1,-1,-1,-1,-1,-1,-1,-1,-1,-1,-1,-1,-1,-1,-1,-1,-1,-1,-1,-1,-1],"split_conditions":[2.36E1,1.925E1,3.005E1,1.125E1,4.54E-1,1.065E1,7.15E0,1.4224999E1,8.937335E2,1E-1,8.9195135E2,8.95346E2,2E-1,1.38E-1,3.145E1,1.46E1,1.3625E1,2.0825E1,8.938725E2,8.952052E2,2.6E1,8.2E0,2.28E1,1.235E1,2.65E1,8.930345E2,2E-1,6.825E0,2.01E-1,1E-1,5.1089207E1,5.4349655E1,1.35E1,7.5E1,1.49E1,2.03E-1,4.6E-1,8.492912E1,1.42E1,1.185E1,1.145E1,7.728963E1,8.926253E2,8.9373474E2,2.1525002E1,8.882848E1,8.9328955E2,2.7025002E1,2.12E-1,3.5081783E1,2.25E-1,3.59E-1,1E2,5.9E1,1E2,8.9445154E2,2.2368896E1,3.26E1,2.2E1,8.9328955E2,1.89E-1,8.90003E2,2.33E-1,6.355186E-2,-1.8032856E-1,-2.0849422E-2,-2.7678636E-1,-3.6996998E-2,-1.4776995E-2,-2.2327505E-1,-6.542755E-2,-3.634602E-2,-1.6581569E-2,-4.7608856E-2,-1.8891256E-1,3.0217271E-2,-1.7641347E-2,-1.1736238E-2,-4.8169043E-2,-3.5543077E-2,-4.133589E-3,-8.756663E-3,2.2687415E-2,-7.849763E-2,-1.1215756E-2,7.951228E-2,-3.1813677E-2,-1.2150814E-3,2.1149206E-1,-5.8687214E-2,5.2243185E-1,1.1688761E-1,1.6089907E-2,4.1147918E-2,-8.399949E-2,-2.0038355E-2,9.106849E-3,-4.9704965E-2,-1.8706922E-1,2.697556E-3,5.6435075E-2,9.237713E-2,-9.50807E-2,9.977667E-3,4.6939816E-2,5.2828334E-2,-5.964396E-3,2.9387723E-3,-5.730129E-2,6.587253E-3,1.2163222E-1,-1.3226326E-1,1.12259105E-1,-4.5040227E-2,-5.1515335E-1,1.7104043E-2,1.244413E-1,1.4721163E-2,-5.36215E-2,4.5969315E-2,8.7655365E-2,9.2473075E-2,-5.3324252E-2,1.15529355E-2,9.447118E-2,7.2072154E-1,2.0428182E-1],"split_indices":[0,0,7,4,12,11,11,0,9,6,9,9,6,5,7,7,11,7,2,9,7,13,7,4,0,2,13,11,5,6,1,1,11,10,0,12,5,8,11,11,4,8,9,2,0,8,9,0,5,8,5,12,3,3,10,2,1,7,3,9,5,9,5,0,0,0,0,0,0,0,0,0,0,0,0,0,0,0,0,0,0,0,0,0,0,0,0,0,0,0,0,0,0,0,0,0,0,0,0,0,0,0,0,0,0,0,0,0,0,0,0,0,0,0,0,0,0,0,0,0,0,0,0,0,0,0,0],"split_type":[0,0,0,0,0,0,0,0,0,0,0,0,0,0,0,0,0,0,0,0,0,0,0,0,0,0,0,0,0,0,0,0,0,0,0,0,0,0,0,0,0,0,0,0,0,0,0,0,0,0,0,0,0,0,0,0,0,0,0,0,0,0,0,0,0,0,0,0,0,0,0,0,0,0,0,0,0,0,0,0,0,0,0,0,0,0,0,0,0,0,0,0,0,0,0,0,0,0,0,0,0,0,0,0,0,0,0,0,0,0,0,0,0,0,0,0,0,0,0,0,0,0,0,0,0,0,0],"sum_hessian":[1.05168E5,6.4729E4,4.0439E4,2.7927E4,3.6802E4,3.5517E4,4.922E3,5.428E3,2.2499E4,3.3464E4,3.338E3,1.1814E4,2.3703E4,7.51E2,4.171E3,2.18E2,5.21E3,1.5435E4,7.064E3,3.0331E4,3.133E3,1.845E3,1.493E3,9.41E3,2.404E3,2.1649E4,2.054E3,1.8E1,7.33E2,2.897E3,1.274E3,9.6E1,1.22E2,4.911E3,2.99E2,1.511E4,3.25E2,2.436E3,4.628E3,2.488E4,5.451E3,2.712E3,4.21E2,1.84E3,5E0,1.191E3,3.02E2,9.028E3,3.82E2,1.892E3,5.12E2,1.3893E4,7.756E3,1.57E3,4.84E2,1.5E1,3E0,4.91E2,2.42E2,2.639E3,2.58E2,1.246E3,2.8E1,5E0,9.1E1,1.09E2,1.3E1,4.179E3,7.32E2,2E1,2.79E2,5.7E3,9.41E3,2.28E2,9.7E1,1.782E3,6.54E2,3.649E3,9.79E2,3.477E3,2.1403E4,2.23E3,3.221E3,1.24E3,1.472E3,2.83E2,1.38E2,1.834E3,6E0,2E0,3E0,5.98E2,5.93E2,1.2E2,1.82E2,4.148E3,4.88E3,3.01E2,8.1E1,1.317E3,5.75E2,4.97E2,1.5E1,1.0321E4,3.572E3,6.858E3,8.98E2,4.2E2,1.15E3,3.6E2,1.24E2,1.4E1,1E0,1E0,2E0,4.08E2,8.3E1,9.4E1,1.48E2,2.198E3,4.41E2,6.4E1,1.94E2,3.08E2,9.38E2,5E0,2.3E1],"tree_param":{"num_deleted":"0","num_feature":"14","num_nodes":"127","size_leaf_vector":"1"}},{"base_weights":[3.079038E-5,-2.4138818E-2,6.521116E-2,-4.446615E-2,5.943627E-3,-4.9894854E-2,7.640981E-2,-6.899602E-2,-2.5866162E-2,-1.7540298E-2,3.898399E-2,-4.674311E-2,-1.6277645E0,5.2203342E-2,1.2970722E-1,-7.5905375E-2,4.750707E-2,-1.9481149E-2,-1.0647888E-1,5.0134286E-2,-3.1625565E-2,7.495374E-2,-2.8521335E-2,-1.9188587E-1,-1.8517861E-2,-2.2821523E-2,-5.9900093E-1,7.4271956E-3,9.200305E-2,2.501076E-1,1.0380122E-1,-8.035636E-2,8.740583E-2,9.665086E-3,3.3153868E-1,-6.0621988E-2,-5.1194048E-3,-4.3509822E-2,-2.0241386E-1,-1.0755036E-1,8.887366E-2,-3.379283E-2,5.075033E-1,3.4467656E-2,1.2494789E-1,-3.1532927E-3,-1.6889398E-1,-1.605075E-2,-4.528771E-1,-4.0220097E-2,1.507463E-1,-1.8809713E-2,1.4310127E-1,1.8799171E-1,6.082446E-2,1.38324015E-2,3.267423E-1,1.3395964E-1,1.2791101E-2,-3.0157533E-2,-1.6229985E-2,1.18385E-2,8.018341E-2,-4.8685092E-2,1.031708E-2,2.2748475E-1,4.60816E-2,-1.2286112E-2,-8.521748E-2,2.4964055E-2,-7.1360776E-3,-3.4863353E-2,9.6886675E-4,2.344339E-1,-6.619659E-2,1.4360863E-1,-3.5409484E-2,7.4054473E-3,6.401266E-2,-1.8174805E-2,2.1434203E-3,2.0860699E-1,-1.5038973E-1,8.637431E-3,8.6698316E-2,2.1856481E-2,8.508623E-2,1.7004848E-2,-1.601063E-2,-1.271785E-1,-1.3134527E-2,2.6120959E-2,-5.4262437E-2,-1.612752E-1,6.196514E-3,-1.1458663E-2,-5.739201E-1,1.59713E-1,2.3569658E-2,-1.0478111E-2,4.6885163E-2,9.3727805E-2,1.9422522E-2,4.2075377E-2,9.486542E-2,2.1561813E-2,-2.7088005E-2,-2.071236E-2,1.2309362E-1,-7.6573424E-2,1.0188699E-1,3.1850867E-2,7.035807E-2,5.0023045E-2,-1.359081E-2],"categories":[],"categories_nodes":[],"categories_segments":[],"categories_sizes":[],"default_left":[0,0,0,0,0,0,0,0,0,0,0,0,0,0,0,0,0,0,0,0,0,0,0,0,0,0,0,0,0,0,0,0,0,0,0,0,0,0,0,0,0,0,0,0,0,0,0,0,0,0,0,0,0,0,0,0,0,0,0,0,0,0,0,0,0,0,0,0,0,0,0,0,0,0,0,0,0,0,0,0,0,0,0,0,0,0,0,0,0,0,0,0,0,0,0,0,0,0,0,0,0,0,0,0,0,0,0,0,0,0,0,0,0,0,0],"id":13,"left_children":[1,3,5,7,9,11,13,15,17,19,21,23,25,27,29,31,33,35,37,39,41,43,45,47,49,-1,-1,51,53,55,57,59,61,63,65,67,69,71,73,75,77,79,81,83,85,87,89,91,93,95,97,99,101,103,105,107,109,111,113,-1,-1,-1,-1,-1,-1,-1,-1,-1,-1,-1,-1,-1,-1,-1,-1,-1,-1,-1,-1,-1,-1,-1,-1,-1,-1,-1,-1,-1,-1,-1,-1,-1,-1,-1,-1,-1,-1,-1,-1,-1,-1,-1,-1,-1,-1,-1,-1,-1,-1,-1,-1,-1,-1,-1,-1],"loss_changes":[1.6568314E2,4.6914833E1,3.667547E1,2.0887413E1,2.4006018E1,1.2470897E1,3.344275E1,1.5896751E1,1.3401571E1,1.7240473E1,3.1213575E1,1.031601E1,2.710248E0,3.1775543E1,2.5229324E1,1.3555634E1,1.1884438E1,1.425759E1,1.1535421E1,1.9043972E1,1.7508629E1,1.6969517E1,1.5913483E1,1.8808218E1,7.7569594E0,0E0,0E0,2.987543E1,2.8240501E1,2.5942642E1,1.8291855E1,9.603416E0,4.2582455E0,4.15926E0,9.754677E0,2.7428297E1,2.9498512E1,3.9250839E0,1.3758329E1,3.835422E0,1.9989794E1,1.6353497E1,1.1718996E1,6.688097E0,3.0992382E1,1.1378816E1,2.1806454E1,4.1969504E0,6.629486E0,7.0211573E0,6.569304E0,1.9852867E1,1.8024538E1,1.4120995E1,1.1905632E1,1.1594237E1,8.197968E0,1.3965729E1,1.4854058E1,0E0,0E0,0E0,0E0,0E0,0E0,0E0,0E0,0E0,0E0,0E0,0E0,0E0,0E0,0E0,0E0,0E0,0E0,0E0,0E0,0E0,0E0,0E0,0E0,0E0,0E0,0E0,0E0,0E0,0E0,0E0,0E0,0E0,0E0,0E0,0E0,0E0,0E0,0E0,0E0,0E0,0E0,0E0,0E0,0E0,0E0,0E0,0E0,0E0,0E0,0E0,0E0,0E0,0E0,0E0,0E0],"parents":[2147483647,0,0,1,1,2,2,3,3,4,4,5,5,6,6,7,7,8,8,9,9,10,10,11,11,12,12,13,13,14,14,15,15,16,16,17,17,18,18,19,19,20,20,21,21,22,22,23,23,24,24,27,27,28,28,29,29,30,30,31,31,32,32,33,33,34,34,35,35,36,36,37,37,38,38,39,39,40,40,41,41,42,42,43,43,44,44,45,45,46,46,47,47,48,48,49,49,50,50,51,51,52,52,53,53,54,54,55,55,56,56,57,57,58,58],"right_children":[2,4,6,8,10,12,14,16,18,20,22,24,26,28,30,32,34,36,38,40,42,44,46,48,50,-1,-1,52,54,56,58,60,62,64,66,68,70,72,74,76,78,80,82,84,86,88,90,92,94,96,98,100,102,104,106,108,110,112,114,-1,-1,-1,-1,-1,-1,-1,-1,-1,-1,-1,-1,-1,-1,-1,-1,-1,-1,-1,-1,-1,-1,-1,-1,-1,-1,-1,-1,-1,-1,-1,-1,-1,-1,-1,-1,-1,-1,-1,-1,-1,-1,-1,-1,-1,-1,-1,-1,-1,-1,-1,-1,-1,-1,-1,-1],"split_conditions":[2.545E1,2.095E1,8.8938995E2,2.9E1,7.9E1,3.9E0,1.3625E1,2.135E1,4E-1,3E0,9.8E1,2.45E1,1.535E1,2.7925001E1,2.4E1,8.972682E2,2.67E-1,8.9101117E2,2.045E1,8.2E0,2.9775002E1,8.929249E2,3E-1,2.67E1,1E-1,-2.2821523E-2,-5.9900093E-1,8.9576874E2,1.6E1,2.52E1,1E-1,2.05E-1,1.88E1,8.9355396E2,8.916297E2,2.065E1,8.9131354E2,1.895E1,1.57E-1,8.9090594E2,2.3425001E1,1.545E1,8.93658E2,8.939806E2,6.616852E1,2.275E1,1.81E1,7.092655E1,4.41E-1,6.5E0,1.24E1,1E2,2.6375E1,1.0825E1,1E-1,2E-1,1.005E1,9.8E1,4.7E1,-3.0157533E-2,-1.6229985E-2,1.18385E-2,8.018341E-2,-4.8685092E-2,1.031708E-2,2.2748475E-1,4.60816E-2,-1.2286112E-2,-8.521748E-2,2.4964055E-2,-7.1360776E-3,-3.4863353E-2,9.6886675E-4,2.344339E-1,-6.619659E-2,1.4360863E-1,-3.5409484E-2,7.4054473E-3,6.401266E-2,-1.8174805E-2,2.1434203E-3,2.0860699E-1,-1.5038973E-1,8.637431E-3,8.6698316E-2,2.1856481E-2,8.508623E-2,1.7004848E-2,-1.601063E-2,-1.271785E-1,-1.3134527E-2,2.6120959E-2,-5.4262437E-2,-1.612752E-1,6.196514E-3,-1.1458663E-2,-5.739201E-1,1.59713E-1,2.3569658E-2,-1.0478111E-2,